493 300
アクセサ 0.463609 0.864264 -1.031535 0.689115 -1.639204 -0.189368 -1.298803 0.572650 -0.199830 -0.548247 -1.382984 0.432236 -0.295023 -2.088769 -1.439315 -0.326750 -0.407806 -1.139579 1.132753 -1.687448 -1.535956 0.541780 0.057064 -0.301533 0.206248 -1.060469 0.081611 0.896025 0.515379 -0.646581 0.358309 2.551828 -0.162302 0.506009 1.007818 1.051803 -1.454125 0.674563 -0.858986 0.200954 0.222738 -0.195860 0.187758 -0.117763 1.870502 -0.634811 -0.787523 -0.774701 0.257314 -0.653574 0.026410 0.734810 -1.670859 1.382506 -0.636447 1.315751 1.772016 -0.142521 -0.848539 -1.422361 0.482800 -2.512412 -0.229224 -0.212557 -1.173751 -2.373136 1.326537 0.223493 -0.702595 2.045772 0.755340 -0.300398 1.141876 -1.877142 0.605632 -1.351783 -1.789830 0.230485 -0.833117 0.743749 -0.869133 -1.751698 0.702052 -0.726153 -0.274454 -1.123457 0.360278 2.066661 0.729542 -0.286888 -0.253228 -0.722756 -1.320795 -2.512801 -1.269856 0.465703 1.989686 -0.584874 -0.054554 0.823113 1.591324 -1.923067 -0.726280 1.514320 -0.102899 1.275832 0.263927 -0.849891 -0.347300 -1.137477 1.332237 -0.449027 -0.002774 -0.222153 1.262740 0.106248 2.036667 -0.352305 0.132066 -0.075181 0.119314 -0.148000 0.818180 1.923217 0.735768 0.107556 1.391707 -0.558570 -0.005643 -0.969501 0.818593 1.751642 -0.766464 1.557552 0.577153 0.536502 0.146050 1.363233 -0.848486 -0.022996 1.648588 1.164397 -0.518254 -0.537628 -0.512233 -0.965150 0.007436 0.194655 2.314876 0.037612 -0.090782 0.433063 0.181150 -2.135847 0.778748 1.258732 1.021566 -1.372790 -0.428441 0.397784 -0.497298 0.364512 0.505405 -0.738023 1.255465 0.225788 -0.842899 0.557971 2.099111 1.807630 0.666528 0.123631 -0.257762 0.476552 -0.425712 0.239337 0.942790 -0.459569 0.772024 0.577207 1.643951 0.856483 0.452759 -0.334326 -0.725483 -0.428714 1.501255 -0.457026 -0.504372 0.603828 1.153937 -0.581946 -1.029642 -0.729359 0.429463 1.581779 -1.230556 1.267189 0.355683 -0.187483 -0.555427 -1.316265 -2.573040 0.518346 0.546524 -0.068995 -1.031909 -0.154204 0.824916 -0.203730 0.541900 1.112581 0.742224 0.653101 0.770397 -1.711952 -0.011842 -0.431018 -1.479701 0.884814 0.004151 -0.203252 0.269863 0.108632 -2.001038 1.238134 -1.619829 1.045636 0.117732 -0.885828 1.826289 0.703420 -1.000594 -0.923880 -0.393097 -0.483373 -0.303529 0.689882 -0.026504 1.091475 -0.292233 -1.095456 0.178196 1.013338 0.436360 -0.500291 -0.088404 0.265776 -1.741183 1.211287 -0.346246 1.291425 -0.939973 0.689217 -0.440044 -1.349437 0.721452 0.313206 -0.357304 1.263674 -1.206892 -0.058721 0.642292 0.564013 2.792371 -0.299909 2.034466 -0.438183 -0.987996 0.370531 -0.508792 -0.453872 0.437964 0.618587 0.902981 -0.596879 -0.500739 0.359055 0.028581 -1.075710 -0.868344 -0.108259 -0.752406 0.782175 -0.640733 0.560557 -0.724235 0.764052 -0.179998 -0.037146 -0.307731 -0.560388 0.328350 0.594712 -0.503063 -0.209900 -0.498018 -0.164916 -0.321217 -0.544447
アジャイルソフトウェア開発 0.141605 0.681989 0.425505 -0.532870 0.205784 0.313223 -0.203616 0.513187 1.018887 -1.887045 -1.457277 -1.753827 0.252991 0.958550 -0.795858 1.023567 -1.086900 0.927383 -1.848971 1.101800 0.312919 -0.999044 0.942492 0.876291 2.452043 -0.935784 -2.238598 1.495656 0.700231 0.636346 0.718446 -1.875660 -0.539734 -0.801440 -0.713158 1.434648 -0.868273 -0.236969 2.467978 -0.118990 -0.881235 2.040626 -1.504373 -0.415942 -2.878339 0.991095 -0.796901 -0.396782 -1.326867 -0.313339 0.600637 -0.623219 0.559065 -0.532859 0.490629 -0.241025 -1.152711 0.806909 0.826359 0.954614 0.399157 1.223389 0.282616 -0.120331 0.501634 -0.383026 -0.901404 1.196899 -0.208031 -0.718363 -0.318571 1.177686 -0.496994 -0.635862 0.166325 -0.303941 1.930825 -0.533775 -1.185043 1.801058 -0.707348 0.473694 0.340673 -1.567906 2.469197 -1.836789 0.137970 -1.567378 0.434832 0.528078 -0.613107 -0.731157 -0.290429 0.429442 -1.112297 -1.128248 -0.422540 -0.433142 0.881477 1.812435 -0.417222 1.951080 0.481907 0.451656 1.032790 1.123896 0.706475 -0.267926 -1.168310 -0.271426 0.951364 0.302963 -0.245525 1.720463 0.198480 -0.986793 0.860062 -2.258815 1.295960 1.281812 0.060917 -0.142935 2.549452 0.041054 -0.033194 -0.088736 1.534050 1.271161 -0.467483 -0.452544 0.030636 2.779057 0.356449 1.930799 -0.084015 1.063516 -0.124493 0.733490 0.940961 0.543892 -0.671506 0.409863 0.542916 -0.666813 -0.046272 0.593924 -0.443938 -0.029810 1.296809 -0.893525 -1.390056 -1.333209 1.679604 -1.748458 -0.006162 -0.413477 -0.050955 0.054289 0.350893 -0.969085 0.504304 -1.030442 -0.902610 1.472899 0.854700 0.528033 2.385592 -0.607401 1.341735 2.015714 1.472626 -0.200054 1.291900 -0.811329 1.252975 -0.659664 -0.532436 -0.148260 -1.543508 0.234266 0.174573 -0.282715 -0.204189 -0.632961 -0.716539 -1.500659 -0.376481 1.211659 -1.504401 1.662390 -1.495008 -0.148832 -0.298435 0.202733 -0.185020 -1.361494 0.807797 -0.398211 -0.839344 0.798958 -1.149957 -0.651267 1.806137 0.420750 2.042282 -1.504452 -0.605502 0.397385 0.064896 -0.655876 0.331615 1.713045 -0.012542 -0.127051 -1.502208 -0.589482 -0.238121 0.994171 0.342160 1.430470 -1.778210 -0.001095 -0.598288 0.523899 0.570688 1.938487 -0.455882 1.461957 0.607722 1.131021 1.125945 0.784151 -0.645268 0.050827 -0.365531 -1.784397 -0.565690 1.296348 -0.959077 -1.324924 -0.186565 -0.907777 -0.852467 -0.145390 0.182622 0.684820 -0.069574 0.307655 -0.727262 1.497018 -1.530633 -0.523863 -1.240943 0.849300 -1.291059 0.852632 0.649122 0.881802 1.566878 -0.958387 -1.840668 1.563400 0.384870 -1.234906 1.267245 -1.532962 -0.405339 0.954276 0.612793 1.239985 -1.626572 0.895878 -0.528909 -0.164574 -0.569391 1.331321 1.382347 -0.566893 -1.222031 -0.874047 1.788496 -1.548039 -0.526516 -0.667800 -0.524437 0.053869 -0.994320 1.798253 1.371371 -0.193343 -0.171127 2.655317 -0.006731 -0.464295 0.303190 -0.277861 0.514683 -0.343479 1.076298 -0.653463
アスペクト指向プログラミング -0.193120 0.614404 -0.379100 -0.122516 -1.053983 0.305642 -0.027818 1.905814 -1.849039 0.633716 -1.738044 0.085310 -3.191526 -0.485222 0.146913 0.889600 -1.139650 -1.464176 -0.561771 -0.739886 -1.072376 0.801390 0.009627 1.037024 -0.516070 0.820571 0.961838 0.210550 -0.172788 0.735948 0.128619 2.568865 -0.798285 -0.690725 0.092763 1.100519 0.170061 -0.801904 -0.466603 -0.340355 -0.156528 1.600152 -0.175421 -0.504560 -1.055026 1.037623 0.356595 -2.095869 0.498647 0.000005 -1.328764 0.304354 -0.619672 -0.500166 0.381676 0.249351 -0.322363 -1.120375 -1.903204 1.002410 0.939795 -1.278929 0.079526 0.428642 -0.567904 -0.816397 1.876075 -0.006267 -1.003679 -0.045511 -2.141541 -0.100371 0.329237 -0.456475 1.918433 0.678156 1.680781 0.997924 -0.218374 0.016993 1.400980 1.927820 0.659469 -1.037974 1.055311 -1.072254 -0.080722 0.258615 0.491318 -0.952684 0.180030 0.526524 -0.121450 -0.462590 -0.392071 0.396760 -0.118323 1.031748 -0.208737 -1.299305 1.031060 -0.570699 1.542777 1.689237 -0.891425 0.157526 -0.397444 -1.523886 2.082632 -0.774104 -2.664065 1.655812 -1.032448 1.058357 0.243578 0.069555 0.209372 1.078369 0.644625 -1.843774 -2.035157 0.517679 -0.947024 0.865321 -0.132554 0.039405 -0.406673 -0.703306 1.266782 -1.285283 -0.551393 1.565440 0.001204 0.533822 -0.961103 1.133777 -0.986288 0.133403 -0.428154 -1.013561 -0.625172 0.747473 0.662964 1.002022 0.727795 0.736192 0.787398 -3.181803 0.666306 0.010709 0.204375 -0.686794 -0.660241 -1.695431 -1.129785 -1.682356 -0.342912 -0.793199 -1.464739 3.003267 0.831992 -1.115354 0.182669 0.956614 -0.798886 0.173909 -1.349434 -1.401883 -0.191923 0.932428 0.329785 -1.284417 0.146064 0.981898 0.153965 0.785388 0.365255 -0.238027 0.398898 0.577505 -0.311475 -0.896276 -1.016949 -0.215845 -0.176225 1.614134 0.453194 0.950978 0.270915 -0.866872 -0.480107 -0.109621 -0.228442 -0.117273 2.919079 -0.085062 -0.553602 0.541247 -0.511802 -0.823358 0.865107 -0.245647 -0.274361 -0.700208 0.073696 -0.203194 0.482919 0.410698 1.666472 -0.252613 -0.145438 0.333521 -1.011670 0.034191 0.674782 -0.644189 0.780323 1.118541 -0.360268 0.218049 0.662451 1.646531 -0.076454 -0.561176 0.663851 0.577913 -0.947133 1.100142 0.125593 -1.195765 -0.072189 0.172825 -0.041963 0.988167 -0.935040 -1.136045 -0.816896 0.861660 -2.132901 2.121812 2.060790 -0.460878 -0.088016 -0.779698 -0.902815 0.110358 -1.220109 -1.497512 0.468852 0.288855 0.566995 0.118292 0.098732 0.258500 -0.806247 0.309639 -0.535295 2.252030 0.001547 0.398078 -0.453628 0.951756 -0.713220 -0.406039 2.242537 0.592876 1.652619 0.036872 1.191997 -1.467319 0.603293 0.365339 -0.275797 1.478467 -2.592519 -0.799373 -0.307659 -1.329808 -0.048740 -0.515381 0.570320 -0.575001 1.194155 0.729319 1.319453 1.466463 0.439335 -0.267847 -1.139069 0.401540 1.125701 0.455657 -0.224918 -1.086927 -0.647180 0.412329 0.002349 -0.077659 0.078463 0.072467
アセンブラ 2.431630 -1.845231 0.433893 0.804735 -1.273839 -0.988767 0.706544 0.351256 -1.195375 1.227829 0.557611 0.510026 1.456014 -1.639358 0.794857 -1.249751 -0.831008 0.112564 -0.449712 1.519927 2.720541 1.317629 0.769175 0.557157 0.235310 0.615939 0.003431 -1.041069 0.433235 0.234467 0.560884 0.277661 -0.355266 -0.250328 0.494612 -0.747195 0.201604 -0.960553 -0.055443 -0.412542 -1.698372 -0.702263 1.397259 0.720984 -0.458604 -1.701034 0.322445 -0.479866 0.107546 -0.382329 0.277723 -0.672993 0.386274 -0.922930 0.069535 0.168241 1.603752 2.004405 -2.894989 -0.424669 -0.003705 0.609347 1.369672 -0.138164 0.596642 -0.199714 1.863805 -0.716092 0.701808 0.129457 -1.390489 0.355437 0.416253 -0.507567 -0.657523 -0.174317 0.669863 -0.293848 -0.404676 1.923512 1.629997 -0.028063 -0.074436 -1.106505 2.129468 -0.661616 0.678960 0.395572 -0.886154 -0.297373 0.166742 0.570791 0.382385 1.645619 0.535996 -1.382424 -0.381272 0.395704 -0.780886 0.311400 0.532272 1.461228 0.367411 -0.466969 0.308629 0.676957 2.163081 -0.681774 0.500045 0.230603 -1.041946 0.293668 -0.202660 0.439723 -1.153537 1.179365 0.074630 0.500855 0.126987 1.365160 -0.756915 0.109645 -1.882536 0.094589 0.522556 0.512761 1.123048 -0.279621 -0.201228 0.206519 2.817884 0.622058 -0.424783 2.219320 -0.004229 -1.600815 0.138427 0.415121 1.177229 1.424300 -0.190674 0.743549 0.181693 -0.714875 -0.884948 0.440757 0.896812 0.074026 -0.783651 -0.321848 -0.359923 -1.287600 -1.846729 0.267981 -0.831260 0.592387 2.342179 1.286152 -0.031929 -0.620750 -0.078096 1.024446 -0.032337 -0.551146 0.812424 0.232727 -2.525200 -2.446986 -1.428059 0.840483 2.228080 -0.898056 0.642424 0.502564 1.560264 0.543822 1.070528 -1.146560 0.422916 -0.457912 0.215803 0.943170 1.112345 -0.099825 0.388174 1.091048 0.405281 -1.454052 0.193557 -1.812201 -0.947784 -0.469185 -0.565719 -1.098127 0.450377 3.466544 0.569471 1.054686 -0.453925 -0.412544 -0.094310 -0.165024 -1.466662 -0.390146 -1.298830 -1.108652 -0.719508 -0.094427 0.217242 0.333602 -0.847307 1.107396 1.639884 -0.873743 0.468971 -2.005141 -1.534755 0.640462 0.732792 0.096898 -1.801055 -0.255909 -0.493712 1.408859 -0.020420 -0.452497 -1.679630 3.162702 0.835698 -1.514587 1.307936 1.188223 1.141526 -0.116524 0.978726 1.179020 -0.431822 0.157365 -1.256610 -2.259184 0.716747 1.224048 -0.650333 0.468790 0.125158 0.223765 -1.305736 0.327456 -1.735384 0.256786 -2.472034 -0.448958 0.281750 1.243982 1.771518 -0.471759 -0.616489 -0.101524 0.474848 -0.947578 -0.054675 -0.364295 -0.677021 0.544999 -0.450415 0.177056 -1.369831 1.007020 1.321259 -0.776377 0.352676 0.380692 -0.688334 -1.537870 -1.219946 0.894703 -0.842161 0.148255 -2.067895 -1.536146 0.114203 -0.275095 -0.365748 -1.148739 -1.392239 -1.377357 0.912469 -1.060103 0.998684 -0.934857 1.176356 2.202080 0.683540 -0.521013 -1.067697 0.169352 0.117589 0.583458 -0.401044 0.556345
アセンブリ言語 -1.447319 -0.777064 0.016232 -0.373268 0.768827 -0.784740 0.670141 -0.821702 0.621853 0.158847 1.678054 -0.415114 0.059866 1.181615 0.775084 -1.178708 -1.825687 1.484854 -0.419851 0.026200 -0.590500 -0.864044 -1.453976 1.119848 1.441561 -0.811323 -0.022986 0.936760 0.317521 -0.307167 0.199804 0.942481 -0.151923 1.415755 0.210173 -0.649939 -0.211938 -0.201735 0.658604 0.019744 0.989669 0.077489 -0.231363 -0.816841 0.855208 0.208870 -0.194112 0.695929 -0.793116 0.626446 0.689479 0.932294 -1.173818 -1.460015 -1.443382 -0.395912 0.950016 -0.232087 -0.080252 -0.405410 1.586306 0.410245 2.043790 0.417279 -1.121555 1.203520 0.201761 1.255243 -1.636945 0.923649 -0.264821 0.571939 0.680927 -0.299847 0.222515 0.640316 1.849739 -0.413031 -0.758255 0.368233 0.586728 -2.017881 0.899966 1.195281 0.391194 -0.003879 0.767884 0.668968 0.232088 -0.600427 3.149896 1.035778 -0.898120 -0.193744 -0.238110 -2.043446 -0.346896 -1.217071 0.102853 0.416952 1.603082 -0.866305 0.285906 1.256075 0.569943 1.352333 0.155561 0.781426 0.743192 -0.321128 0.112808 1.362729 -0.389736 1.029915 -1.527344 -0.028607 0.839543 -0.701776 -1.244781 0.302997 0.602502 -0.177959 1.360452 -1.360101 -0.844397 -0.055256 -0.121128 0.626320 0.947305 1.898812 1.706845 -0.388553 0.332855 0.252442 -0.828069 -0.657901 0.628963 -0.923479 0.953515 0.673772 0.700066 1.376753 1.644629 -1.988352 -0.975530 -0.582755 0.436249 0.127583 1.317609 -1.022591 0.615389 0.809691 -1.586262 -1.795110 0.501463 1.706989 1.061075 -0.493663 -0.770904 0.253623 -2.837490 -1.536220 0.142092 -1.087134 -1.077804 -0.519136 0.800684 -0.290024 0.582320 -0.634362 0.386256 -0.192299 -0.243942 1.061198 1.467887 -1.516081 -1.976784 -1.038121 -0.416036 0.482839 -0.299978 -0.897498 -1.151639 -0.270177 0.209385 -0.910670 1.377954 -1.890373 -0.604127 0.033065 -0.990676 -3.063884 -0.067114 0.310341 -0.524436 -1.088104 0.576065 -0.501028 1.474530 -0.730194 -0.504305 -0.216489 -2.186578 -1.458771 -0.587190 -1.327939 2.104525 -0.127174 -0.670052 -0.669777 0.900494 -0.757465 -0.474910 1.966472 1.276224 -0.925443 0.178335 -1.600744 0.852544 1.943676 2.492023 1.869738 0.611180 0.236222 -0.105349 2.438988 -0.927396 -1.370985 -0.154016 0.051578 0.350474 -1.270498 -0.355436 0.248452 0.536101 -0.762485 0.920288 1.054543 -1.206546 0.963744 0.878081 0.336193 0.264173 -0.271914 -2.187551 0.602246 -0.525273 -1.149314 1.707779 0.156319 -0.384751 0.047594 -0.968990 0.749125 -0.249995 0.131819 -0.374708 -0.318580 1.503229 -0.287285 0.443238 1.091817 -0.896331 -1.555551 -0.275095 -1.028399 -0.079985 -0.667156 -1.817746 -0.081207 0.389628 -0.713504 0.959367 -0.632518 -1.318679 0.087399 0.101956 -0.897443 0.650532 -1.855614 -0.635761 0.740425 -2.620325 1.851743 1.202488 -1.786847 0.588472 0.013357 -0.617633 -0.051394 1.798721 -0.185506 0.271093 -0.561865 1.173467 0.617443 -1.207326 -1.474933 0.027278 -0.238513
アダプタパターン -0.604118 0.084661 -0.948447 0.131072 -0.854619 -0.684698 -0.430591 -0.135433 0.573871 -0.725507 0.517427 2.217025 -0.099908 1.830369 -0.279368 0.567899 -1.480177 -1.456795 0.931921 -1.890252 1.328922 -0.092805 0.841188 0.187121 0.428769 0.773055 0.316024 2.136615 1.119008 -0.983782 0.021737 -0.678931 -0.010784 0.124813 0.104830 -0.249060 -0.453672 -1.224780 0.284103 0.028701 -0.783361 -0.269626 0.851436 -0.448368 -0.878046 0.178756 0.390765 -0.751628 -0.383644 -0.603442 -0.669567 1.502404 -0.649514 1.247300 -0.175882 -1.292309 0.367492 0.372814 -0.351975 1.222384 -0.113061 -0.668156 -0.475931 -0.316409 -0.632780 -1.269923 0.064545 -0.019174 -0.812684 0.914464 2.433309 1.513084 -0.447838 0.651427 0.358242 -0.071190 -0.047201 0.491520 1.234347 -0.594356 0.535087 0.458817 -0.083669 0.919383 0.118663 0.141623 0.573472 -0.823683 0.463232 0.712938 -0.123122 1.876819 2.432973 -1.298959 -1.062895 -2.238004 0.966475 -0.352181 0.696043 -0.810136 0.511990 -1.293407 -0.733052 1.143964 0.728175 1.423583 1.521751 1.080767 2.308086 0.081134 0.201851 1.227120 1.027214 -0.809073 0.174291 0.169907 -0.622288 0.290141 1.463793 -0.895746 1.149422 0.602109 -0.111568 0.977660 0.270266 -0.448253 1.886655 -0.809434 1.452563 0.126761 0.054031 -1.304284 -1.210992 0.251102 1.931261 -0.990543 0.584641 0.702964 -0.858748 0.196748 -0.719730 1.985409 0.279473 0.324306 -0.698857 1.178898 -0.550838 -0.813285 0.188218 -0.746911 1.170109 0.579258 0.137088 -1.774806 1.665152 0.236428 -1.524359 0.097655 -0.553941 -0.540353 -1.005098 -0.790157 0.321848 0.041236 0.067126 0.628565 -1.264558 -0.367486 0.866910 0.965549 -0.954533 1.577358 -0.055926 -1.150149 -0.440149 0.102519 0.123220 -0.653105 -1.021452 -2.113667 0.889943 -1.049256 -0.894506 0.668312 -0.729189 -0.532813 -1.442957 -0.109301 0.673662 -0.530862 2.703906 -0.519853 -0.154362 1.289244 -0.007673 0.721196 0.024487 -0.415156 -0.238939 -0.699973 3.110474 0.379725 1.370755 0.927433 -0.927681 2.503953 -3.122662 -0.460494 -0.076646 0.745888 0.772381 0.269060 0.436791 0.670577 -0.827156 0.377397 1.226851 0.388086 -0.641887 -0.444096 0.698595 -0.296030 -1.864930 -0.338649 -0.979064 -0.589234 0.269034 -0.253084 -0.795924 0.955674 0.829803 2.152669 1.474120 -1.705020 0.916973 0.790429 2.196693 0.850173 -0.137359 0.403142 -0.567058 1.059445 -0.129155 0.895538 1.601254 0.992254 -1.444216 -0.102689 -2.062765 1.184663 -0.718969 -0.042991 -1.100515 -0.654574 0.098184 -0.222002 -0.120915 1.028952 0.117175 -1.388481 -0.243531 0.293647 0.216207 1.029335 1.529442 0.186323 0.307375 0.351528 -0.718777 0.489768 0.240015 -0.497265 -1.307703 0.205456 0.302518 -1.655244 1.115421 0.687156 -0.851083 1.839139 1.318135 -1.772258 0.188403 -0.959721 -1.036893 -0.762875 -0.402432 1.227007 -1.553241 -0.885711 0.626401 -1.470318 1.284963 0.226480 0.993453 1.882545 -1.086038 1.312539 -1.234087 -0.474703
アドレス -0.465950 -0.658080 -0.754127 -0.209756 -1.020622 1.620922 -0.220490 1.393641 0.074454 -0.155927 -0.440247 -0.092400 1.233859 -0.252889 1.446020 -0.229447 -0.650226 0.522035 -0.119874 -0.924430 0.676743 0.447502 1.616986 0.413074 0.471811 0.910912 1.455607 -0.354953 -0.351967 -1.528365 -0.211240 -0.608864 -1.019189 0.618425 1.989260 -0.464004 -1.825602 0.166976 0.904833 2.471900 -0.456058 1.639620 -1.007163 -0.576269 -2.478988 0.086252 1.004913 0.721918 -2.287313 0.097957 -0.965070 -1.685365 -0.460621 -0.470529 0.001059 -1.065234 -0.228314 -0.122728 -1.327214 -0.893661 0.816016 0.071074 -1.265795 -0.682782 0.471465 0.635163 -1.182423 -0.061417 0.397941 -0.208705 -0.171415 1.086817 1.573488 0.300595 -1.070506 1.344238 -0.582828 1.876353 -0.005788 1.383107 -0.043100 1.938058 -1.813775 0.604092 -0.909735 -1.092312 0.529010 0.213457 -2.389540 2.390878 0.004979 0.942380 1.068539 -0.534265 0.389762 0.481642 0.133301 -0.751665 0.839763 0.761920 0.086820 0.283570 0.008778 -0.735908 0.880362 0.708326 0.861686 1.176287 -0.863291 0.712128 -2.059089 0.708363 1.764179 -0.197769 2.262044 0.859938 -0.756146 0.428444 0.447663 -0.358343 0.517473 -0.005406 0.414159 0.791349 1.027044 0.892703 -0.072162 0.143618 -0.227632 1.314900 -1.441315 -0.283248 -0.316881 1.031049 0.308149 -0.018747 1.501436 -0.455790 0.407019 0.540822 -0.340851 -0.873971 -0.848063 0.167842 -0.276148 0.570000 0.962848 -0.628950 0.778992 -1.450461 0.671747 1.319714 1.331646 -1.616603 2.883856 -0.246036 0.059880 -0.538901 0.288031 -0.485524 0.672846 1.896397 2.175353 -0.244288 0.303192 0.804335 -0.215121 0.798116 1.539703 3.192619 -1.628331 0.327366 0.327893 -0.034104 1.524314 -0.625213 1.252802 0.839898 0.977983 -0.072171 0.315388 -0.568852 0.265553 -0.453197 -2.608290 1.013071 1.407321 0.051337 -0.256965 0.998287 1.798970 0.198627 -0.192497 1.977287 1.198535 1.264512 -0.222244 -0.500585 -0.542821 0.105158 -0.406157 0.713067 0.548460 -0.329385 -0.767598 -0.187353 1.194625 1.575216 -0.478176 0.611161 -2.382743 -1.210509 0.614936 -1.537021 0.362593 0.923136 1.407886 -0.450989 -0.246127 -1.179911 -0.275394 -0.801500 -0.956812 -0.203666 0.089587 -1.538772 0.259742 -0.245259 0.038198 -2.212113 2.132076 1.889377 -0.253199 -0.497962 0.581744 -0.605596 -1.585961 -2.017512 1.458992 -0.093096 0.265777 -0.477312 0.720203 0.766776 0.164150 1.059641 -0.725817 -0.373826 0.835247 0.295106 -0.467210 1.479450 0.652319 0.064899 -0.285674 0.284319 -1.709454 -0.048693 0.203636 1.445292 0.777429 -0.764658 0.168943 0.407458 -0.355886 -0.954180 0.120701 -0.648063 0.266495 1.098735 0.185979 0.445373 -1.139922 0.876484 0.562111 -1.555612 -0.515736 -2.234579 -0.156400 -0.172035 0.413620 0.406971 0.908854 -0.713834 0.225117 -0.858797 -0.062201 -0.580805 0.230158 1.326038 1.012653 -0.966402 0.538845 1.484598 -0.393650 0.209440 1.108382 0.631827 0.354203 0.952973
アドレス空間 0.632806 2.765422 0.201890 0.330889 -0.197498 0.521305 0.341800 1.574340 -0.744352 -0.754468 -0.749180 0.012818 -0.151789 -0.031616 0.010762 1.334646 1.195128 0.103725 -1.389649 -0.493099 -1.379267 -0.035588 0.544687 1.215443 1.309006 -0.083226 0.920365 -0.903371 -1.471066 -1.036188 0.426718 1.025233 -0.329331 -0.958840 0.497658 2.367619 -0.615517 -0.401843 -0.085788 -0.101067 -0.784344 -0.755743 -1.158824 -1.608232 -1.297106 -0.759829 -0.424360 -0.941755 -0.008528 0.258989 -0.918520 -3.156521 -1.038666 0.231225 -0.112359 -1.258924 -0.578477 -0.402766 -0.365731 -2.651890 -0.105492 -0.117576 -0.863538 -0.848898 -0.494121 0.171480 -0.448136 1.645971 -1.753739 1.172528 0.218840 0.040564 0.729560 1.010238 -0.275800 0.332360 0.429598 -1.155940 0.203511 0.556635 0.431287 -2.225105 -0.880236 -1.395355 2.026059 -0.504814 -0.527213 -0.600770 -0.034648 -0.283044 -0.142864 -0.857978 -0.659094 0.265332 0.310042 -0.562046 -0.326434 1.412624 -0.796189 0.180351 1.211659 0.046486 0.622153 2.814261 0.219871 -0.502865 -0.506605 -0.288234 0.276246 0.516233 -0.338003 1.252382 -1.764221 -0.383226 -0.402079 0.876704 -1.027111 -0.199527 0.224534 -1.233872 -0.969653 0.215753 2.206303 0.263892 0.410978 0.102047 -0.590214 -0.394770 1.695857 -0.724038 0.760674 0.499197 -1.069135 -0.183992 0.358301 -0.522613 -0.301269 -1.455805 -0.984823 0.942812 0.972111 0.328058 -1.014297 -0.761505 0.800282 0.198807 0.583318 1.193316 2.394552 0.617962 -0.640115 -0.408417 -1.393790 -0.857298 0.136577 -0.998854 -0.537084 0.308361 -1.067897 0.234384 -0.415278 -0.403629 1.027665 -1.483525 0.594803 1.205561 0.594712 0.553897 -1.516739 -1.436504 0.101662 -1.117570 0.964558 -0.681471 -0.568958 0.422123 -0.641887 -0.834506 -1.784407 -0.226359 -0.198152 0.173586 0.569354 2.967885 0.690331 -0.098288 -0.234884 -0.407585 -0.937939 -0.653077 -0.248213 0.254537 -0.082244 0.619438 1.798605 -1.049041 -0.410183 -1.446571 0.654408 -1.648946 -0.361714 0.158878 0.623794 -2.164608 -1.766206 0.110285 1.423774 -0.642768 -0.436346 0.173291 1.022834 1.444813 -0.139127 0.563376 -1.813054 0.731615 -0.708757 0.114670 1.815790 -0.711860 -0.094159 0.154290 0.767594 -0.557102 -0.810026 -0.327774 0.014963 -0.081199 -1.014304 -0.029390 0.278886 0.597736 -0.828327 -0.591183 -0.152154 2.764080 -2.220377 0.552161 1.089719 -0.444701 0.120019 0.264935 -1.359549 0.179743 -0.201212 0.464182 -0.909372 -0.786476 -0.363555 2.021020 -0.007016 0.645785 -0.038643 0.411103 0.880532 -2.017976 0.138500 -0.374354 -1.006905 0.343200 -1.330746 1.012353 -0.359921 0.078976 0.750139 -1.043509 1.141445 -0.738976 1.187885 1.018776 0.718509 -1.800334 0.122452 -1.112164 -0.906619 1.092784 -1.081095 -0.274635 -0.877714 -0.342218 0.423014 -0.401696 0.237670 1.572742 -0.268235 2.928119 -0.529212 0.042148 -0.955636 0.376443 0.561538 -0.282881 0.193765 -0.027615 -0.866263 -0.920893 -0.300467 1.390535 0.789664 1.648200
アドレッシングモード -0.072015 -0.022593 -0.494949 -1.868626 -0.032145 -0.216038 -1.960666 0.073560 0.627275 0.748679 -1.006448 0.913119 -0.262503 -1.043544 1.077087 -0.274797 0.524101 0.968473 0.226760 -2.256642 -1.231202 -0.613550 0.980851 1.328774 1.028691 0.450706 1.357349 0.121546 -0.744574 0.416523 -1.157948 -0.126080 0.044049 0.245142 -0.119253 0.432365 0.251031 0.445415 2.567928 0.781804 0.374999 0.677073 1.788789 0.392350 1.543866 0.802520 0.612216 -0.469121 1.012406 -1.352093 0.129258 -1.201347 0.576765 1.326835 0.423553 1.193887 0.779249 -2.135764 1.983570 -0.980207 0.568310 0.734762 -0.819841 1.068158 -0.300501 0.527641 0.811363 1.800761 2.371195 -0.865942 -2.223461 -1.560259 -0.756763 0.192594 0.528369 -0.764121 -1.269530 -1.323982 -1.444513 0.161057 -0.331412 -1.802796 0.952410 -0.119196 -0.133662 -0.150320 -0.697149 1.770818 -0.672479 0.384945 1.397818 -0.429166 0.120985 -1.812473 0.615615 0.615088 -3.010607 0.822342 -1.654125 1.303316 -0.528309 0.834357 1.831884 0.741802 0.449674 -1.562090 -1.785857 0.304970 1.038851 -1.440424 -1.278633 -1.404760 0.654196 1.551669 1.086201 -0.639069 -0.113277 0.918550 0.268479 0.083866 1.039747 -0.691198 0.889167 -0.646041 2.111473 -0.541544 1.307855 1.007289 0.077256 0.460670 0.185381 0.493631 -0.292317 -0.935672 0.981966 0.745437 0.644053 0.924762 0.146016 -1.456077 -1.659068 -0.950632 0.393394 0.870067 -1.135120 -1.357531 0.832174 -0.327671 -1.562529 -0.392398 -1.047727 -0.101642 -0.386055 -0.381695 -0.713111 -2.096903 1.505619 -1.406223 1.455665 0.089397 -1.073455 0.169347 -0.069934 -1.277433 0.745444 -0.222185 -0.403418 -0.121917 0.116780 -0.009228 -0.171163 -0.527790 0.018797 -0.044311 1.035778 -0.704418 -1.501676 -0.199056 -0.569597 0.400820 0.699439 -0.876708 -0.282014 -0.001801 -1.551223 -1.208710 0.170645 0.817563 0.373681 1.082039 -0.761347 -0.082277 0.929486 2.569491 0.487223 1.394937 -1.279932 -0.037429 0.875725 1.562180 -1.346738 0.739733 1.731542 -0.226363 1.509949 -1.511091 0.655026 -1.178852 0.672778 0.140427 0.195487 0.773940 -0.971964 0.619569 0.874847 0.840235 -0.743226 0.409277 0.199734 -1.128945 -0.065661 -0.478358 0.351622 -0.355238 0.104620 -1.526327 0.191644 0.662332 0.291825 0.526133 0.775244 -0.399244 0.897686 0.464647 0.965112 0.259008 -1.405720 0.015599 0.626930 0.144108 -0.254560 0.408999 -0.350414 1.194102 -3.035919 -2.328691 1.541728 0.861099 -0.437404 0.164188 -0.635758 -1.341269 1.008862 -1.572103 -0.058415 -0.529200 -1.198522 0.189864 -0.926359 0.035401 -0.334832 0.605803 1.073153 0.577911 1.334282 -0.935326 -0.750390 0.853819 0.280450 0.515566 -1.529985 1.396510 0.099063 -0.318016 0.875264 -0.544873 0.167820 1.975421 -0.311871 0.980684 0.056951 0.988830 0.889592 0.617162 0.693449 0.215681 -1.217861 0.336214 0.074943 -1.498415 -0.145974 0.137755 -0.716163 0.202734 -0.283208 0.939515 0.031033 -0.996585 -1.147965 1.310909
アプレット 1.132841 2.438609 -1.025003 -0.984433 -0.272984 -0.381632 -0.707336 0.242551 -0.740567 -2.255383 1.694178 -0.856139 -1.835947 0.046840 0.327086 -0.547908 -0.512282 -1.029364 -1.428530 0.372811 0.428413 0.245829 -0.588465 0.628457 0.507780 0.214994 -0.527565 0.434273 -0.075839 -1.203795 1.140856 -0.986790 -1.538682 0.961022 -0.207068 -0.961756 0.391812 -0.072799 -1.745193 0.432667 -0.033247 0.068986 -2.620430 0.506414 -0.043460 0.066780 2.090492 -0.052462 0.416711 -1.483396 1.774438 0.080321 0.080391 -1.086945 -0.365943 0.414653 0.700288 -1.187009 -0.980096 -1.963194 0.300317 0.092466 -0.492434 0.426052 -0.993721 -0.219449 0.856758 0.926083 0.325181 -1.121660 0.560405 -0.311610 0.600066 -0.354980 0.136386 1.332643 -0.900722 -0.392319 -0.510846 -0.582480 -0.779275 1.002978 0.516638 0.698751 1.006725 0.908257 0.685544 1.369197 0.849667 -0.949339 0.207290 0.340075 0.977499 -0.236422 -0.207388 -0.959915 0.898175 0.071214 -0.918121 -3.001174 0.146372 -0.506616 -0.573610 -0.224110 0.205270 0.245096 -1.343558 -1.008274 -0.422785 -0.401785 -0.734612 -0.219816 -0.190104 0.186980 -0.609018 -1.188895 1.381415 -0.881756 -0.113796 0.876174 -1.617163 -0.902436 -0.471952 1.949894 0.053193 1.394181 -0.873438 -1.446937 -1.788296 -1.719754 -0.482371 1.165609 0.740108 0.920560 -0.094968 -1.234505 0.893296 1.235962 -0.458554 -0.722658 1.477222 -2.262730 0.982445 -0.550837 -0.232985 0.541962 1.557135 -0.148802 -1.210010 0.874269 -0.665504 1.088598 0.049967 -1.053533 0.389471 -0.393793 -0.640066 1.385451 0.729290 0.273905 0.972442 2.363381 -2.414273 -0.307974 2.080692 1.127260 -1.375342 -1.150263 -0.659474 1.628267 -0.097665 -0.195380 -0.149270 0.985637 -0.613263 -0.888272 -1.692350 0.077767 -0.497024 -0.565356 1.560492 0.182628 -1.263822 0.451180 0.133770 0.764510 -1.842451 0.034343 -0.940473 -2.234655 0.224696 0.920336 0.674660 -0.726216 -1.004514 -0.075379 -0.794972 0.082893 1.964640 1.252910 0.326236 -0.429255 1.347263 -1.314133 0.643153 0.034314 -0.165791 0.235945 -1.007038 1.208487 -0.664430 1.075615 1.242391 -0.303273 1.899704 1.647657 0.727216 -0.724030 -1.908080 -0.282194 0.782068 1.409442 0.026101 0.630727 -0.184070 0.524114 1.236925 -0.499899 0.393627 0.305940 -0.720621 -1.297522 0.604242 1.884680 -0.065648 -1.194387 -0.000779 1.839978 0.247127 0.607157 -1.328920 -0.806103 -0.676843 -0.637360 -1.319605 -0.438976 -0.033014 0.456453 2.364137 0.222384 -0.461333 -1.948905 0.114419 -0.762822 1.174556 0.462638 0.045547 -1.156798 -0.823611 -0.742788 -0.877592 0.526439 -0.116361 -0.384497 0.981750 0.093052 1.304200 -2.198634 -1.464927 -0.644602 -0.901074 0.057303 -1.312250 0.181542 0.644049 0.621516 -0.305714 0.747498 -1.355898 1.251021 0.159934 -2.235420 0.713428 -0.931732 -0.025884 1.135148 -0.221293 -0.146171 0.242767 0.852206 -0.799921 0.096862 0.211503 -1.783579 1.749448 0.449243 0.326929 0.305840 0.078640 -0.562656
アルゴリズム -0.123596 1.823365 -0.810245 1.387712 0.281960 -0.091430 1.103826 2.051891 0.340137 0.987403 -1.194473 -2.510979 2.154486 -2.222604 0.326217 -1.694517 0.978023 0.674850 -0.196936 -0.945492 -0.448775 -0.818988 -1.078671 0.146007 -0.891117 -0.036294 0.304226 0.560450 0.200742 -1.216584 0.576968 0.041053 0.134919 0.624322 1.364804 -0.032163 -0.491693 -0.041676 -0.651369 -1.260153 0.724698 0.169275 0.307200 -0.231249 -0.395190 -1.028710 1.691567 -0.446622 -1.742025 0.257076 0.324566 0.635166 -1.264286 -0.211091 -0.492888 0.538115 -0.154079 0.718929 -1.813910 -0.000847 0.915202 -0.879929 0.716814 1.041567 1.788274 0.210922 -1.752580 0.492620 -2.226359 -0.494773 -0.537498 -0.292542 -0.864844 -1.022508 0.500389 0.807128 1.021488 2.314606 1.483359 -0.496000 0.232935 -1.655390 0.188450 -0.825315 -1.351669 0.973254 -0.903789 0.675704 0.068693 -0.265799 1.386077 -0.039474 -0.342317 -1.425962 0.416316 -0.222829 -2.364532 -0.614722 -0.336203 1.223966 -0.339930 -0.255917 -1.396552 2.012964 0.454872 0.749525 1.901796 0.411714 0.620234 -0.268398 -0.218605 -1.432864 2.593713 -1.066734 0.586713 0.335825 -1.002714 0.977771 0.965218 -0.680790 0.848175 -0.824129 1.030175 -1.098018 0.875408 -1.797017 0.345748 1.173523 0.390136 0.251813 -1.292901 1.086340 -1.118909 -0.415885 0.306912 1.362590 -0.898992 -1.409141 0.531947 -1.130560 0.240520 2.139958 1.348608 0.082895 -2.039726 1.571353 0.660970 1.508777 0.385827 -0.311329 -1.015473 0.189969 -0.625658 -1.181952 0.237819 -1.191455 -0.220750 -1.013188 0.511941 0.801443 -1.722781 -3.350763 0.395069 0.429803 0.944933 -1.138120 0.394915 0.751672 -1.248659 -0.747560 0.116641 0.407047 0.486460 0.767298 -0.104134 -0.596360 0.917921 1.021681 -0.095506 -1.350499 -0.578760 -0.444145 -0.594200 -0.297166 1.102149 -0.186211 0.709543 0.647773 0.108334 -1.958495 -1.485552 -0.236677 -0.285683 1.853280 0.974384 -2.424100 -0.356840 1.272870 1.290471 -0.258245 -0.117333 -0.667443 1.090016 -1.008132 -0.337650 -0.881915 0.487169 -0.891899 -0.076467 -0.743129 -1.189310 -1.170046 1.057121 -0.205225 -1.041148 0.817562 -1.329139 -0.660706 -0.144755 0.015248 -0.081133 -1.045969 0.970990 1.163859 0.110533 -0.324068 2.237335 -0.525609 -0.412356 1.451426 -0.279594 0.490656 1.693521 0.745696 1.044624 -1.111215 -0.038925 0.388392 -0.439480 0.651241 1.327997 1.186507 -0.752615 -0.841565 0.133708 -1.330802 0.447201 0.868236 0.683205 -0.265473 -0.323878 0.695633 -0.592403 1.367127 0.525729 -0.650608 0.599640 0.795432 -1.359594 -0.079673 1.438437 -0.977039 0.113865 0.229618 -1.245677 -1.324258 -0.188495 -0.500694 0.296713 -0.432257 0.279360 0.887962 1.120355 -0.786274 -1.875565 -0.064350 1.490067 -0.370513 -0.117467 -1.904824 -1.334879 -0.233488 -0.479917 0.291688 -1.127537 -0.018616 -1.168038 0.303638 0.051658 -1.017154 -1.342707 -0.135273 0.527744 -1.443127 0.878534 1.319793 -0.401923 1.706330 -2.055557 -2.546076
暗号 0.431002 -1.594649 0.716058 -0.626388 0.250076 0.884616 0.896456 -0.307652 0.338651 1.638869 1.085747 -0.602582 -1.359959 -0.143429 -0.798215 0.278552 0.567028 0.253943 -0.301253 -0.140058 -1.609761 -0.189519 1.521037 1.901815 0.477854 0.094561 -0.903436 1.991243 1.855520 0.866354 -0.904972 0.162882 0.880004 0.721974 -0.330393 0.174810 0.430294 -1.356468 1.618707 0.674523 1.001933 -0.001027 1.730606 1.133955 -0.124047 -0.023122 0.472643 -0.095895 1.387669 0.472162 -0.701223 0.201810 -0.221783 0.306148 -0.662083 -0.927730 2.002534 0.803024 -0.699080 0.695821 -1.542246 0.294168 -0.680246 0.041245 -0.387122 -1.134690 -0.539372 -0.059857 -0.784900 -0.866285 0.630614 1.358416 -0.723369 -0.387340 -0.235212 0.785218 -0.462519 -1.390354 0.495336 0.127828 -1.075499 0.090351 -0.965721 -0.345816 -0.194918 1.429011 -1.526987 -0.309108 -1.905414 1.295366 0.710000 -1.673330 -0.653076 1.418590 1.598446 1.022343 0.044430 -1.698507 0.631100 -1.947842 0.337023 -0.919759 0.083186 0.842382 0.674721 -0.141819 0.956550 -0.056610 2.304896 -1.332418 -2.292227 -1.897338 0.432837 -0.365126 0.608002 -1.395271 -0.687644 0.430190 0.830070 2.211891 -0.641351 0.465998 0.069030 0.209332 1.021055 -0.731962 -1.625733 -2.065090 0.238348 0.281324 -0.097036 -1.178111 -1.414394 -0.845942 -2.099953 -1.868181 -0.428008 1.011487 0.537755 0.533945 0.847832 -1.912840 0.918721 -0.963821 -0.000558 0.371311 0.943286 0.016986 2.144093 0.189159 0.438847 -1.470309 -0.155989 -0.305551 -0.344158 1.144590 0.592164 -0.544745 -0.445833 -0.637091 1.541339 0.676999 -1.407283 0.524025 0.912767 0.796407 -0.971331 -2.570834 1.086394 0.101273 0.791954 -0.474736 -0.639441 0.718536 -1.110912 1.357465 0.395803 -2.142335 0.957169 0.699301 -1.302102 1.897855 -0.176982 0.798285 2.225444 1.550519 -0.264349 0.063716 0.603465 0.683006 -0.537748 -0.959118 0.140885 0.380282 -0.528625 1.058137 0.647598 0.009255 1.299215 -0.171459 0.694139 0.576223 -0.209239 0.424573 0.313455 -0.823876 0.847663 -0.662653 -1.176696 -0.541072 -0.347848 -0.405821 -2.404211 -0.483031 0.776388 -0.391434 1.712324 -0.276614 0.076781 0.746993 0.239492 0.491121 -1.288541 1.688749 -1.338333 0.911150 1.188010 -0.445316 0.014834 0.917692 0.180086 -1.007577 -1.386038 1.225837 0.678368 0.533602 2.226069 1.127191 0.658331 0.718349 0.449369 -0.622922 -0.481489 0.151486 0.050258 -0.243076 0.967441 0.237756 2.099895 -0.646981 -0.952827 -0.522266 0.624286 0.866859 0.126044 -0.809099 2.147216 -0.186597 -0.321564 -0.220205 0.129762 -0.698761 1.553409 0.443087 3.496150 0.059447 -0.169805 0.300318 -0.656163 -0.455654 -0.108448 1.300985 0.688943 0.646735 0.881707 0.298027 -0.047117 0.959065 1.271082 -1.669629 -0.373623 0.500315 0.233783 0.097634 0.258016 1.712803 1.041209 -1.817391 -0.868619 -0.537425 -0.802782 0.775945 0.141150 1.244179 0.448711 -0.405936 -0.317349 0.782306 0.240352 0.853626
アンチパターン -0.209324 -0.189113 0.435775 2.736328 0.639844 0.270886 0.142330 1.862875 -0.546592 -0.515598 -0.283444 0.811678 -0.620156 0.672428 0.546638 0.736954 1.665015 -0.416315 -1.390704 -0.823596 -1.935196 -0.475525 -0.845821 -0.605180 -0.226825 -0.132296 0.673018 -0.141337 -2.235926 -1.415360 -1.379104 0.770542 1.186295 0.398374 -2.223155 -0.224898 -0.273359 -0.525142 0.307372 1.446041 -1.688516 0.863561 -0.433482 -0.271175 -1.247121 -0.301203 -1.713949 0.611728 -0.567463 -0.093194 0.500467 -1.297051 1.472471 -1.001995 -0.792575 0.469132 -0.477422 0.696267 -0.221943 0.572545 0.633911 0.289942 1.351173 -1.030507 0.173446 0.103245 0.659417 -1.221054 -0.011953 -0.180431 -0.831811 -1.799885 1.473113 -0.441444 0.955566 0.055151 1.749892 1.095207 -0.069336 1.681715 0.883974 -1.559004 0.294699 1.602591 0.778776 0.403365 -0.311190 0.674288 -0.968478 -0.974805 0.304941 2.281886 -0.102013 -0.648316 -1.068297 -0.707948 0.877124 -0.790047 0.369767 -0.882497 0.112647 -0.303760 0.414094 -1.064238 0.447332 0.728852 -1.364256 -0.761838 1.764599 -1.469974 -0.467370 -0.998219 0.675189 -1.490569 0.300356 0.322051 1.382290 -0.874369 -0.800232 -1.177938 -0.684532 0.166635 -1.910855 -1.195598 0.865197 -0.294062 0.321239 -0.254971 0.934937 -0.880233 -1.606967 0.322015 0.878449 0.475351 -1.054779 -0.330925 -0.709369 2.528235 2.753279 1.155147 -1.473817 0.860261 0.633368 0.512853 0.309317 -1.637650 -0.390710 -0.136234 -0.589070 -0.417091 1.666435 0.583212 -1.436143 1.549838 -0.759814 0.499935 -1.607597 1.670967 0.136258 1.017973 -0.157384 1.174645 -0.936890 -0.439751 -1.227724 0.952756 0.890962 0.695820 1.141017 -0.321081 -1.262297 1.191879 -1.384742 0.675912 0.481091 -0.355944 0.102906 0.057213 0.866259 0.481861 -0.097871 2.686100 -1.091225 0.958447 0.547368 -0.317236 -1.776055 1.150532 0.144838 0.901799 0.399581 -1.126034 -0.309887 -0.428264 0.426467 1.479498 -0.279682 -0.178103 0.868436 1.599818 -0.957870 -0.474907 0.093819 -0.572663 -0.823808 -1.563875 -0.993408 -1.352989 1.023369 -0.629201 0.765654 0.123964 -0.001395 -0.252614 -0.378257 1.012707 -0.550764 0.209978 -0.824856 0.572712 0.054023 -0.432700 -0.733441 -2.225858 0.008310 -0.329473 0.859329 -0.880987 1.277699 -0.756934 -0.759493 -0.502819 -1.770227 -0.221479 1.459640 0.235652 0.280008 0.483309 -0.751523 1.955690 2.392800 2.160106 0.370253 1.213078 1.276464 -0.623189 -0.794902 0.135756 -0.309729 -1.566142 -0.781114 -0.768251 1.424235 0.101903 -0.333178 0.516998 -1.448187 0.738911 -0.183600 -1.365083 0.047107 0.827535 -1.217953 -0.880990 0.054767 -0.012143 0.085667 -0.221800 -0.248394 1.714717 1.075481 1.408779 -0.156371 -0.230653 0.699430 0.219638 0.331234 0.345790 2.338212 0.329167 0.702095 -1.450300 -0.264080 0.785242 -0.138157 -0.043092 0.298931 0.798645 -0.284242 1.626224 -0.317492 0.428494 -0.747676 -0.612313 -2.192394 -0.407599 -0.444889 0.264305 0.566509 0.818802
委譲 -0.695545 -0.042110 0.545311 0.481152 -0.097892 0.610467 0.059809 -1.163626 0.742991 0.304928 0.394728 1.164439 -0.026736 0.108540 -0.045371 -0.734671 0.801995 1.525379 -0.222931 0.578744 -2.198925 -1.037066 0.863311 -0.052281 0.745599 -0.450975 -0.657385 -0.849844 0.962801 -1.049033 2.585097 -0.874432 -0.814269 0.602669 0.690165 -0.051030 -1.176216 1.638987 -0.032785 0.480143 -0.657627 0.144293 0.071277 -0.175437 1.083703 0.947539 -0.349299 0.283012 0.006186 -1.009464 1.242319 1.253309 -0.515188 1.237748 -0.668506 1.206717 -1.261351 1.163748 0.819432 2.518157 -0.353908 -0.155255 -0.378977 1.815392 0.482991 0.684463 -0.296967 -1.218504 0.910268 1.944193 0.772730 0.046766 0.828747 0.110539 2.209142 0.064293 0.742657 0.215681 -0.303874 1.071090 0.515865 -1.253474 -0.240793 1.593816 1.617107 -0.814781 -1.429925 0.736797 -1.483289 -1.557341 -1.472791 -0.918083 -0.731709 -1.153480 -0.528245 -0.293899 -0.250974 -0.711724 0.054300 -1.615527 2.418541 0.086770 -0.301920 -0.771692 0.128908 -0.232339 -0.328270 -0.942317 0.211078 0.340933 -0.371186 0.631783 0.279475 1.228797 0.286702 0.604874 0.895457 -1.671366 0.050173 -0.430340 0.508180 0.483081 -1.842460 0.321339 0.454289 0.814843 2.865373 0.140919 0.745340 -0.088034 -3.169977 -0.125086 -1.487504 0.507322 0.002470 -0.183890 0.011627 0.595655 -1.073987 0.001056 -0.012545 1.010408 0.709797 -0.260620 -0.199097 -0.094258 1.105629 -0.470793 0.503995 -0.065833 -0.065201 -1.137910 0.685324 0.659902 -0.963406 0.400675 1.511067 2.383271 -1.681881 0.016242 -0.103617 -0.839358 -0.534689 -0.935095 0.524440 0.781547 -0.164742 0.170399 1.051792 -0.950687 -0.370442 0.224775 -1.782836 0.157434 -0.950851 -1.415466 -0.636583 0.499249 -1.792526 -0.270888 -0.354473 1.045869 1.629838 -1.312259 2.041049 1.453823 -3.061135 -0.875243 0.292453 -1.172305 1.055356 0.865753 -0.968848 -0.677758 2.008666 -0.440158 -0.700718 -0.020548 0.870074 -1.419382 1.465226 -0.261677 1.188786 1.652229 1.602201 -0.014999 0.104070 0.166882 -0.058716 -0.047086 -2.214321 -2.959518 -0.728948 -1.469589 -0.404689 1.636185 -1.370862 -0.023560 2.840601 -1.985277 -1.031031 0.810812 -1.001932 2.532974 -0.231037 0.429238 3.122988 0.958203 1.874660 1.145547 -1.184216 0.198358 -2.202733 -0.641674 1.677814 -0.824078 -0.830331 -0.777060 2.913108 1.517700 0.894504 0.431743 0.663369 -0.976407 -0.382748 -1.146095 -0.462052 0.694063 0.525159 1.904204 0.666707 -1.521665 1.749938 -0.758877 1.706987 0.251269 -0.853124 -0.283705 0.866855 0.257778 0.410283 0.076358 0.674318 -0.498214 -0.618956 0.669276 1.037881 1.044549 0.724200 1.187046 -0.155089 0.623022 0.715798 -1.414101 -0.564267 -0.471106 0.525930 -0.072098 -1.023166 -0.210861 -0.297959 1.019020 -0.740668 -0.543049 -1.493885 0.925358 0.734131 0.997994 1.279792 0.958718 -0.727367 0.273396 -0.409032 -0.153760 0.877105 -0.310145 -0.780698 0.266872 -0.624149 0.248468
イテレータ -0.788470 -0.219126 0.287700 -0.333677 -0.800810 -0.440441 -0.194044 -1.543485 -0.363453 -1.239718 0.661922 0.747453 -0.296291 0.432025 1.021002 -0.978385 -1.101906 -0.300662 0.935874 1.305840 -0.627610 -0.494429 1.332565 2.029734 1.351601 -0.360689 -0.443056 0.370057 -0.009528 -0.024915 -0.598187 0.350202 -0.868133 -0.913997 -0.778957 0.464519 0.135075 0.947224 1.085039 -0.563031 -0.261915 -1.260483 1.545511 1.833057 1.005517 -0.601967 -0.459887 -1.445696 -1.170155 -1.690347 -1.750402 0.138583 1.112049 -0.983472 -0.545139 0.293593 1.870370 -0.604354 -0.803509 -0.452724 1.273846 0.925607 -1.495266 0.238313 1.151606 -1.023442 1.165776 -1.155805 -0.274144 -0.172917 0.146637 -1.709701 0.100960 -1.306008 2.001830 0.056754 0.138496 0.199819 1.521520 2.080307 -0.425839 0.217116 -1.033968 -0.132632 -0.675210 -0.596885 -0.230405 -0.656361 0.455361 -1.075161 0.038419 -0.149622 0.150413 -0.635829 -1.147408 -0.555933 -0.506671 -0.021017 -0.731879 -1.756034 -0.074508 0.155179 1.089027 0.004858 3.171997 -0.126302 0.777249 -0.917050 -0.819312 1.172927 -0.518778 0.571573 0.607916 1.538149 -0.442125 1.143006 2.420141 -0.498927 1.105512 0.731550 0.148989 -0.196665 -0.659063 0.498666 1.079857 -0.480688 -0.172781 -1.154959 0.241067 -0.039578 -0.753769 0.403502 0.006811 0.594821 -0.882013 -0.240199 -1.524977 0.632324 -0.368018 0.230434 -0.010148 0.689701 0.170333 -0.479113 -1.013250 0.557673 0.762735 -1.100194 -1.960426 -0.965014 1.344518 0.283175 0.120523 1.075558 -0.037960 -2.129068 0.083447 0.390234 1.188773 1.682535 0.729638 -1.165918 1.753600 -1.082420 -0.051003 -0.610063 -0.505789 0.502846 -0.331295 0.800859 -2.251034 0.255236 -0.910993 1.396209 -0.423709 1.154847 0.948814 0.044263 -0.168078 -1.034614 0.405957 -0.683846 0.451060 0.061889 -0.475248 -0.591975 -1.072407 -1.405993 0.272694 1.520383 -0.570848 -0.496651 -1.133545 -0.454783 -1.836861 0.040731 2.770444 0.272550 0.969278 -1.116076 1.389828 1.336573 2.292146 0.839743 1.420050 0.096795 -0.760096 0.858187 -0.857165 -0.377364 -0.278146 1.320950 0.283605 -1.365827 -1.990572 0.589687 -0.057978 -0.911349 1.214744 0.151657 0.935296 0.013151 0.960475 -0.106298 0.440357 -1.025974 -1.115800 -0.023746 -0.987241 0.807307 -1.602712 0.637610 0.625163 0.209266 0.029503 0.124138 1.027673 -2.462415 -0.790923 -0.306307 0.503276 0.951629 2.102777 1.945683 -1.210202 1.763606 -0.510734 1.602225 -0.379878 -1.900354 -2.022601 -0.155639 0.309469 1.438168 -1.577503 -0.276465 -0.612275 0.283278 -1.411277 -0.010001 0.925995 0.022248 -0.139357 -1.005872 0.768121 0.281774 -0.320471 -0.089993 -1.398719 0.198127 1.237314 -0.387037 0.363506 -1.452583 -1.590280 0.502325 -0.818909 0.771063 1.073897 1.901571 2.534926 -0.035101 0.532268 0.393597 -1.157242 0.425997 -0.309239 -0.439602 0.489375 0.812583 0.443975 0.094633 0.111424 -2.135503 2.200240 -0.158112 -0.673091 -1.575765 -0.981068 1.042412
移植性 -0.033963 0.557398 -0.571859 1.300559 0.127222 -0.245618 0.861699 -0.643663 -0.604242 0.688178 -0.842271 -3.377222 1.325938 -1.112780 0.939737 2.132123 -0.446948 -0.446839 -1.192120 0.269276 -0.069357 -0.548860 -0.208316 -1.150637 -0.235865 -0.086570 -0.948746 1.101020 -1.443599 -1.507907 1.375719 -0.049453 0.530521 1.275154 -2.867295 2.357000 -0.706846 1.234440 -0.329151 -0.344503 0.954420 -2.455553 -0.786460 -1.041584 -0.395919 0.838494 0.898425 -0.092397 -0.378129 0.702401 1.886831 -0.915375 -1.939593 -0.614352 0.406898 -1.153607 -1.314604 -1.631382 -1.072287 -1.321710 0.508810 0.902183 -0.552775 1.214549 -0.798323 1.749034 0.548226 -0.414281 1.318363 0.267824 -0.549990 -1.489134 -0.589804 0.483945 0.775743 -0.328521 -0.783645 -0.893467 -0.083469 -1.186741 -0.838244 -1.166274 0.437493 -1.831856 -0.454657 -1.188021 -1.091367 0.993075 0.466342 0.441021 0.276992 1.303795 -0.446292 0.423528 0.203641 0.090252 1.529865 -0.420624 1.215070 0.874225 0.539699 1.088720 -0.564238 0.138455 0.093266 -1.110850 -0.078287 -2.329631 1.369104 -0.978562 0.612717 -0.584957 -0.384291 0.543612 -0.549943 0.496242 2.898378 0.884011 1.003205 1.249739 0.712011 -0.189492 0.294602 1.047426 -0.196647 -0.433934 0.128996 0.437922 0.492311 -0.540457 -0.875592 0.078679 -0.932347 0.972581 0.993911 -0.150125 1.234251 0.236858 1.332479 -1.371164 -0.044302 0.271993 0.117724 -0.405489 1.153700 1.277513 -0.937021 -0.743563 -0.490944 0.401967 0.714235 0.433773 -0.671206 0.172061 -0.712412 2.143341 -1.047895 -1.035313 -1.668971 -0.711060 -0.589578 0.328490 2.379702 0.573442 0.106345 -0.227546 -0.068859 -1.294991 0.672902 0.751909 -0.055638 1.233768 0.413788 1.138911 0.718114 -0.288932 2.448994 -1.898205 -0.563047 0.743897 -1.642351 -0.001179 0.493102 0.187111 -1.064239 0.237247 1.186673 0.820635 0.505442 -0.475649 -0.297467 -0.476355 0.123376 -1.184156 0.868354 0.963604 -2.152787 -0.461438 0.227659 -0.008756 -0.176149 -0.351723 -0.075921 -0.394480 -1.323666 -0.057460 -0.141814 -0.849589 -0.158724 -1.219087 -1.028794 0.801200 -0.611474 0.178701 0.699201 0.509765 -1.009564 -0.760983 -1.197480 0.314474 -0.233309 -0.788415 1.519837 -1.481579 0.241380 -0.474255 0.075841 1.448872 0.792417 -0.345388 -0.689269 0.111737 1.827299 -0.236017 1.535002 0.330491 -0.376403 0.109362 0.172635 -1.864552 -0.965905 1.720497 -0.290097 -2.188912 0.398882 -0.572532 0.456591 -0.360633 -0.100973 1.141176 0.072434 -0.319486 1.024796 -1.707121 0.165029 -1.641376 -0.605898 1.217734 0.469321 -0.815818 0.284133 -0.258024 0.286407 -0.031146 1.151692 1.331336 0.024239 0.427110 0.694830 -0.505133 -0.511866 -1.390563 1.091805 -0.322357 2.320496 0.009755 -0.955458 -1.892206 1.055830 0.459984 -0.666004 0.856674 1.441864 -0.370406 0.380682 -0.544493 -0.223127 -0.481056 1.337623 -0.511838 0.567270 1.098204 1.513630 0.010868 1.307636 1.073566 0.071318 0.609229 1.262017 0.250465
依存性の注入 -0.553308 -1.652615 -2.141283 -0.887041 -0.744490 0.290792 0.296214 0.932326 2.682576 0.019930 -1.222516 -1.088646 -0.412755 -1.286127 0.438440 1.432394 0.803944 -0.392833 -0.540891 -0.079396 0.649403 -0.987524 0.032917 1.330870 -2.432820 -0.960945 0.630192 -1.006815 0.070210 0.514466 0.987132 -2.034889 -0.621471 -1.873800 0.080316 0.668236 0.566844 -1.552176 -0.123394 -2.483866 -0.679951 -0.035225 -1.084837 0.808420 -0.057527 -0.163468 0.276225 -1.205151 0.220138 -1.073659 -0.931162 -0.089028 0.433685 0.338101 0.258175 0.444341 -0.240942 -0.327204 0.684090 -1.022507 0.383979 1.176556 -0.621085 0.349493 -0.338744 -1.570892 -1.007964 1.123874 -1.037937 0.038754 -0.276202 -0.341488 -1.107585 -0.185123 -0.591476 1.088256 -0.045147 0.738783 -0.252334 -0.464138 1.058594 -0.047543 0.540106 0.669237 -0.319807 0.183098 0.565223 -0.249003 0.514554 1.184862 0.183593 -1.476479 0.902662 0.575046 0.315597 -0.738540 -0.939812 1.550977 -1.677403 -0.003367 0.427691 0.158241 -1.665899 0.302418 -1.664559 0.668276 2.155468 -0.527906 -0.794481 0.801715 1.256060 -0.136122 -0.678148 -0.950710 0.795539 -0.938166 -1.778155 -1.944642 0.808276 0.468366 0.399079 -0.196844 -0.994256 0.832058 -1.237544 2.773256 0.893655 1.271582 0.279973 -0.132684 -0.581995 -1.620733 -0.454075 2.158341 0.760067 1.257375 -0.584912 1.220706 -1.049900 1.589920 0.210953 0.186210 -0.227163 0.568559 -0.218788 0.057042 -0.386609 0.203374 -0.075148 2.454185 -0.849298 -0.781774 0.640835 1.857693 0.553080 -0.406418 -1.154474 0.283687 -0.871268 1.193135 -0.485255 0.597114 0.268460 0.903070 -0.079054 0.426058 -0.947878 2.046575 0.496109 -1.410801 -0.587161 -0.575218 -1.495142 -0.362768 -0.332457 -0.423309 -0.290542 1.251473 -0.130518 -0.814280 0.756344 0.338859 -1.038244 1.802230 0.719665 0.118517 0.695402 -1.606176 0.981438 0.049116 2.305266 0.264356 0.130552 0.803198 0.057346 0.431662 0.153901 -0.686181 0.501154 0.445706 -0.145583 1.378692 2.310938 -2.786185 1.228913 0.508293 1.252975 -0.713461 -0.243941 1.121189 0.322931 -1.763723 0.087773 0.954710 -0.412560 -0.332077 0.757125 0.760701 -0.236778 0.721872 -0.176465 1.441264 -1.132042 0.614670 -0.264576 0.563694 0.331266 -0.923571 -0.682369 0.856398 -1.307500 -0.686114 -0.683693 0.648374 -0.226018 -0.528463 -0.015529 0.922605 -0.293902 -1.470357 -0.096691 -0.117892 -0.310230 0.197892 -0.507345 0.823179 -2.029317 1.919832 1.156804 1.158989 -0.090181 2.092396 -0.923693 0.631231 -1.718460 1.068419 0.194157 -0.918518 -0.287002 1.603322 0.721197 0.026511 -0.991972 -2.062508 2.133601 1.150085 1.381086 1.138339 -1.834289 -0.244166 -1.599007 -0.349997 -1.671431 0.547587 -0.476154 -0.656590 -1.577709 1.228360 1.038422 -0.009601 -0.034444 -0.380980 -1.774469 -0.237833 -1.556188 -1.573893 0.120451 -0.472169 0.625133 -1.871698 0.303378 -0.764390 1.189907 -0.003075 -0.985370 -0.028520 -1.420456 -1.245827 1.183403 -1.153092
遺伝的アルゴリズム 1.026605 0.591733 0.875100 0.942558 2.879206 0.509614 -1.375518 -0.850503 -0.900261 0.626900 0.272713 0.901765 -1.789534 -0.105883 -1.319011 -0.955513 0.497617 1.161907 -0.766602 1.303264 -2.040826 -0.167890 -0.805235 0.129646 1.248317 1.947304 -1.019330 0.719411 -2.609756 -1.797221 1.091686 -0.370838 -1.756984 0.413720 -0.374818 -0.071176 0.478687 1.207142 -0.162306 -0.804649 0.478179 -1.091852 -1.758993 0.192251 0.619136 -0.197695 0.138988 0.027951 0.770588 1.113101 0.681045 -0.884297 -0.647542 0.489067 -0.363613 0.315854 0.854377 -0.419428 0.268330 -1.184876 -1.151400 0.684836 -0.248507 -0.559127 0.411504 -0.680785 -0.278926 1.293763 -0.892283 0.277392 -1.335619 0.711038 1.169115 -0.894592 0.398433 0.435921 0.011076 -0.289635 0.456436 2.263418 -0.463306 0.032052 0.169098 0.709843 -0.413788 0.048426 -0.908012 -1.464096 -1.154711 1.343884 0.382110 -0.939083 1.518663 0.463699 2.511517 0.734888 1.495499 1.029277 -0.703981 -1.298616 -0.701735 -0.332464 -0.181317 -1.052306 0.804774 0.043591 -0.483282 0.545566 -1.375645 -0.975435 0.795981 0.178945 0.383791 0.570920 1.267501 0.296581 -0.276569 -0.362691 1.972923 0.477339 0.306918 0.909793 -0.295612 -1.528534 0.237143 -0.226345 -1.165704 0.415725 1.224737 -2.077670 -0.176450 -1.238854 -0.613225 -1.348268 -0.002607 -0.907708 0.262278 -0.274826 -0.311015 0.974089 -0.032247 -2.285270 2.264968 -0.389902 0.156369 -1.116549 1.008502 -0.771857 -0.865191 -0.415016 -0.520855 0.681392 -1.012581 -0.596726 0.275124 0.973031 -0.614624 0.206541 -0.216824 -1.037179 -0.544621 -1.358078 0.418452 -0.414007 1.766029 1.901206 1.947400 -1.058904 2.292145 -1.277058 -0.157193 0.459930 0.766199 1.262738 0.549506 0.050443 1.001916 0.216929 -0.404351 0.488010 -2.018896 -0.758040 -0.824196 -0.048280 -0.182644 -0.564955 -1.577679 -0.508064 -0.996474 2.191070 -0.201699 -1.344742 1.147704 0.434178 1.220902 -0.894137 -0.258148 -0.312883 -0.221517 -0.170671 -2.307091 2.044881 -0.157327 -0.122326 0.273191 -1.310369 1.063009 -0.110921 1.217947 -0.360711 0.198856 1.144366 -0.760944 -0.652706 0.957614 -1.670015 0.715142 1.765584 1.292982 -0.196697 0.299557 -0.350862 0.769353 0.930524 -1.455945 0.663576 -0.075354 0.598436 -0.016306 -0.100308 0.820590 0.619466 -0.987763 0.214883 0.618043 0.824091 -0.398139 -1.306086 -1.097427 0.943788 -0.704664 0.576422 1.212984 0.434291 -0.184108 0.594916 -2.042652 -0.177229 -0.868374 0.274735 0.745882 -0.554487 -0.748147 -0.380315 -0.622416 1.200415 0.010185 1.025969 -0.239409 -0.596907 0.962040 0.759975 1.218304 2.530804 -0.232035 0.123005 1.087788 -0.760415 -0.272312 -1.568712 1.722265 -0.308883 -0.939138 -1.035973 -0.905025 -1.541351 -0.107068 0.287989 -1.400514 0.030683 -0.090322 0.053940 0.017945 -0.436540 -0.775862 -0.754382 0.418022 -1.494445 0.055430 -0.718990 0.457130 0.061285 0.205277 -0.298235 1.815533 0.132032 -0.129658 -1.612750 -0.674756 -0.046602
イベント 0.613738 -2.289827 1.000947 0.992846 -0.184923 0.025300 1.267757 0.428396 -1.285542 -1.038179 0.402815 -0.017502 -1.054072 2.000152 -0.358542 0.052833 0.168410 1.228924 0.598366 -0.603641 1.735006 -0.029783 1.872393 -0.737924 -1.549959 1.364703 -1.239787 -1.833056 0.475762 -0.403506 -0.582688 -1.859131 1.748337 0.315336 -1.386600 1.503235 0.373981 0.790092 0.178251 1.072606 -0.880869 1.152607 0.590662 -0.012413 -0.229590 -0.427221 -0.596366 -0.001411 -1.392396 -0.013838 -0.890047 -0.501297 -0.210990 0.962076 -0.675752 1.330462 0.378934 -2.302261 0.016590 0.349144 -0.462144 1.606284 -1.459811 2.800054 -0.918091 0.005536 0.032012 -0.604257 0.549196 -0.165624 1.363270 1.276888 0.604613 0.444891 0.161308 0.407840 -0.424301 2.039719 0.460101 0.396507 1.118811 -0.723781 1.150206 -0.430192 -1.092390 0.844839 -1.732598 -0.239368 -0.854453 -0.552254 0.628932 -1.229787 0.823547 -0.543958 -0.578019 1.334938 -0.226100 0.052900 0.527647 -0.905695 -0.705258 0.333603 -0.328804 1.884983 1.760950 -0.355365 -0.266165 -1.388504 -0.877032 0.955646 1.208169 0.988505 1.369229 -0.922343 0.600123 -0.322446 -0.699195 0.321688 1.634110 1.692347 -0.799161 -1.509919 -0.588432 1.482693 -0.343751 -0.167627 1.384618 -0.540734 0.846988 -0.750257 1.322757 1.228548 -1.147182 -0.822086 1.060600 -0.343751 0.894641 -0.881706 -0.614738 1.453044 -0.976753 -1.034902 -0.488438 -0.390443 0.668506 1.084580 1.006131 0.705196 0.586080 1.727441 -0.640602 -0.837525 1.315978 1.020350 -0.427675 -1.034271 -2.470607 -0.540928 1.048337 1.174347 0.376557 -0.393430 0.513957 0.856694 -0.290452 1.050920 -0.688692 -0.870373 -1.190842 1.344739 -0.044857 0.076930 -0.393539 -0.475795 -1.742221 0.337177 -1.820406 -0.340652 -0.059035 -0.210046 0.447170 -0.041861 0.348564 0.293222 -0.917033 0.843646 0.356925 -0.203495 2.025413 0.446289 1.993978 -0.690988 -2.353552 1.574561 -1.495670 -0.235059 0.226062 -0.183826 -1.390911 -0.381328 -1.693791 -0.370005 -1.056321 0.798670 0.859469 -0.280285 1.502208 0.613225 -0.507869 -0.707072 -1.107177 0.874258 -0.525032 -0.110575 -0.933267 1.245856 1.987849 -0.180845 0.782985 -2.022201 0.907117 -1.490024 0.135732 -0.031877 -0.746463 1.281818 -0.929167 0.947140 -1.760481 0.851595 -1.303315 0.043284 -1.150810 2.032847 -0.354862 -2.027736 1.479436 0.260337 -1.019948 0.461903 1.540488 -0.722033 0.433050 -0.478869 -0.624196 0.494803 1.682845 -1.815147 -0.630446 -1.879099 -0.958614 -1.101577 -1.014452 0.001076 1.651679 0.385124 1.329678 -2.449813 0.123549 2.201463 0.411992 0.207286 -0.600537 -0.554778 -0.382364 -0.991872 0.304726 -0.212153 1.845583 0.310973 -1.008734 -2.779943 0.127228 0.498488 -0.419950 -0.692123 0.858829 -0.008582 -0.266773 0.568604 -1.716446 -0.134052 -0.600497 0.380600 0.474948 -2.001899 0.560653 -0.901730 -0.530275 -0.415711 0.296629 1.334670 0.956898 -1.093328 -0.172639 0.535111 -0.699633 0.115723 0.371980 0.682164
イベント駆動型プログラミング -0.074766 0.637000 0.743433 0.992221 -0.699900 -2.012665 -1.855514 -0.744668 1.533236 2.479480 -0.416133 -1.179560 -2.946608 -2.089266 0.795022 -0.374375 0.698583 -1.549476 -1.571244 0.476575 0.979839 0.989506 -1.014069 0.188924 -0.543568 0.693524 -0.896168 1.308475 -1.684976 -0.233893 -1.635785 -0.536814 0.552375 -0.265767 0.546445 -1.627774 -0.360172 -0.061057 -2.912458 -0.617478 -0.557989 0.750368 -0.115399 -0.179624 -1.066065 0.127463 -1.908525 -0.671715 0.010499 -0.407714 0.107605 -0.648905 0.139704 1.103971 1.728173 -0.212193 0.537415 0.076735 1.473030 -0.225922 1.277030 -2.269358 0.740803 1.385116 1.119692 -0.622920 0.244306 1.003944 -1.088821 0.273372 -0.109054 -0.445195 -0.409621 -0.470784 1.022826 0.002692 0.754308 -0.225788 1.205140 -0.119985 -0.048525 0.334713 -1.649601 0.529135 1.191872 -1.434376 0.628575 0.572731 -0.609050 -0.147847 1.726043 -0.778344 1.254755 1.280256 -0.210820 0.909651 0.706759 0.201528 -0.637905 -0.085033 -0.307413 0.992573 1.467577 -1.683201 0.048412 0.721546 0.772803 1.252082 -0.386350 0.306788 -0.341614 1.041463 0.039550 0.421284 0.155391 -0.298953 0.913960 0.570774 -0.238999 0.264645 -0.767098 -0.460458 1.179144 0.121274 -0.336741 0.786984 0.857162 0.471519 0.754470 -0.341328 -1.061900 0.143073 0.050357 -0.188539 -0.689182 1.105797 -0.747792 0.828189 -1.544868 -0.059000 1.176662 -0.286665 -0.439494 0.001604 0.308723 -2.071553 0.103245 -0.925636 -0.315787 1.598275 0.511833 0.419720 -0.199365 -0.213495 0.025983 -0.160439 -0.843686 -0.362635 -2.040152 1.062046 0.073561 -0.148330 -0.400736 -0.728530 -0.564203 -1.984443 1.532580 1.523471 0.656323 0.794685 1.453791 0.420263 -1.737854 -0.804602 2.261123 0.141997 1.789849 -0.560061 0.380310 -1.116093 -0.380103 -0.377057 0.360745 -0.180555 -0.970907 -1.007593 -0.312818 2.077388 0.447233 -2.718998 -1.106417 0.842920 1.077784 0.841251 -1.283096 -0.662061 0.495637 -0.340423 -0.611744 -1.701630 0.064638 -1.971468 -1.759799 0.765581 0.091425 0.642444 0.493065 0.451275 0.558182 1.599122 0.626277 1.768204 -0.524630 -0.601590 0.232386 0.166598 0.615800 -2.018002 -0.997828 -0.132295 0.432583 0.234032 0.314436 -0.327800 -0.337665 -0.558359 -1.005632 -1.203876 -1.674094 -0.560093 -1.524762 0.727785 -0.961959 -2.166741 1.212803 0.267146 0.345132 0.157651 -0.097709 -0.608605 -1.774466 0.182110 0.297796 0.455450 1.031342 -0.060657 -0.098246 -0.855710 0.591373 1.782117 -1.346637 -1.171248 0.333748 -0.058056 0.326805 -0.406723 2.471853 0.735063 -0.063436 -0.508493 -0.671286 -0.419215 0.293271 0.967935 0.089435 0.937051 0.500450 -0.088857 0.618579 0.991156 -0.897714 -1.111101 0.476528 -0.141857 1.693879 -0.435878 -0.606217 1.650319 -0.820313 0.566859 -0.528980 -0.641945 1.215209 0.209943 -0.299434 0.048811 0.975562 1.119517 -0.406340 1.019653 -1.825294 -1.279674 2.040071 -0.952843 -0.194880 -0.301428 -0.645916 -0.670407 1.283268 0.618324
インスタンス -1.279381 -0.006184 -1.048806 2.012673 0.404949 1.749513 0.422568 1.056539 -0.824303 -0.295845 -0.650886 0.140861 0.234284 -0.416860 1.464177 1.321263 0.638468 0.451155 0.500733 2.402810 -0.433347 0.387098 1.938830 0.409903 1.099957 0.840233 0.304846 -0.699692 -0.243614 -1.985685 -0.654116 0.069945 -0.346206 -0.483565 0.300093 -1.135461 -0.821516 1.841764 0.206001 -0.483415 1.423531 -0.781644 -0.777488 -2.432925 -0.021218 -0.591060 0.411950 0.708906 -0.789851 -1.026391 -1.266707 0.391309 0.911985 -0.384490 -0.339551 0.386623 -0.849182 1.224030 0.129737 -0.858835 -0.208493 0.723446 0.986101 -1.958268 0.876269 -0.502620 -1.750064 -1.226192 -0.474488 1.034795 0.658192 -2.298869 0.214872 -1.266171 -0.529439 -0.771962 -0.595487 0.319272 0.625804 0.574324 -1.237934 -0.563264 -1.333986 -0.199558 -0.787427 0.493998 -2.635330 1.431515 0.056887 -0.374848 0.024118 0.932143 -0.315295 -0.337675 1.646252 1.776331 0.477103 1.415920 2.011631 -2.207669 -1.784233 0.416891 0.226351 -0.938421 0.135738 -0.358576 2.020020 0.547076 0.330199 -1.108013 -1.536309 -1.913386 0.948547 -0.474781 0.682736 -0.472717 -0.683620 0.500616 -0.113442 -0.938482 1.476224 -0.731100 1.669661 -0.289468 -2.817557 -0.501403 0.213389 1.273224 -0.741651 0.697513 0.869772 -0.290872 0.578225 0.448704 -0.169592 -0.762713 -0.819473 1.585192 -0.367247 -0.985103 1.412025 0.591543 -0.732772 0.471417 -0.887893 0.253096 -0.654272 1.393603 0.748877 1.205376 -1.376409 1.730298 1.271950 -0.103595 -0.433675 0.298739 -1.069338 0.756163 -0.147066 0.434801 -0.075454 0.775963 1.375285 0.611485 0.755811 -0.076369 -1.082638 -0.955126 1.333326 0.687898 -1.103516 -0.994303 -0.253657 -0.750052 -0.298221 -0.956431 0.049875 0.264049 -0.695390 0.363282 0.772582 0.501166 0.483163 0.600433 0.562383 -0.753516 -0.865069 0.811375 -0.086666 2.028868 -0.394094 0.123741 0.902592 1.080144 -2.283230 -0.426107 0.452804 0.103622 -0.373775 -1.585343 -0.972438 0.685381 -0.299426 -0.876867 0.794931 0.160396 -0.025890 0.696014 0.202674 -1.138679 0.583656 -0.225302 -0.709890 1.095994 -2.244232 1.218653 0.989941 1.182229 -0.084507 1.255677 -0.582447 -1.006525 0.715007 -0.411377 0.717212 -0.015036 -0.342079 0.146046 -0.792602 -1.675593 -2.125443 0.402287 -0.834510 -1.664709 0.556131 0.008733 0.380026 1.756596 0.682959 -0.363605 0.864622 1.966346 1.258196 0.197773 -1.057148 0.255863 0.179039 0.279763 -1.528205 0.480090 -0.464886 0.180926 -0.188452 -0.136869 -0.081907 -0.138013 0.417443 -0.892741 0.079184 -0.956237 -1.283250 -1.601448 -0.066884 0.787152 0.689116 -0.730177 0.661165 -1.626277 -0.150421 0.629394 -1.308505 -0.832521 -0.039696 -0.747978 -0.642921 1.382669 0.492549 0.923464 0.519220 -0.154275 0.300206 0.007036 -1.214940 -0.376061 1.555697 1.915789 0.218560 0.810085 -0.003469 2.092496 -0.336335 -0.019200 0.459224 1.063432 0.273746 -0.418060 0.545346 -1.117154 0.696472 0.240559
インスタンス変数 -0.692415 0.647833 -0.285993 0.548889 0.329833 0.887756 0.252186 -1.281646 -0.389555 0.760395 0.075449 -0.004383 -1.084482 1.457607 -0.498663 0.271391 1.013729 -0.638303 1.470672 -1.319729 0.927387 1.186110 -0.682138 1.107886 0.584509 1.713846 -1.015998 0.945445 -0.877560 0.426417 1.292543 -0.194975 -0.730088 -0.206614 0.647238 0.111018 -1.219822 1.137498 -0.549898 0.795071 0.605652 -1.941809 -0.283986 0.076396 -1.973642 -0.126943 0.954936 -0.833532 -1.400554 1.815878 0.092906 0.924644 1.003492 0.401645 1.220344 -1.799521 -1.277343 -1.591229 0.515769 -0.286098 -0.613324 -0.734568 -1.219157 -0.334018 0.351905 0.229018 0.302393 -1.150751 0.889072 0.594685 -0.562099 -0.398291 -0.074728 0.542960 -0.803367 -0.320234 -1.026080 -1.701541 -0.672734 -0.021425 0.191796 1.015283 -0.359776 -0.969801 -0.278697 1.077769 0.399023 -0.286955 -1.288785 0.455849 0.577326 1.737773 -0.776568 0.264084 -1.218158 0.589090 0.168640 -1.401712 1.126795 -1.224982 0.093972 0.347718 -0.837590 -1.644674 0.378797 -1.659341 0.083595 0.634983 0.206898 1.051843 -0.503263 0.003111 0.599094 0.396694 1.293654 -0.474551 -0.194378 0.122889 0.828820 0.799981 1.076825 0.072380 -0.447578 -0.543269 -0.581287 0.797189 0.311285 -0.344019 -0.610311 1.044668 1.055249 0.585193 -0.304955 1.264843 -0.002404 -0.052806 -0.512730 -1.949883 -0.525661 1.695836 1.968739 -0.734704 1.583488 -0.728936 -0.263004 0.821728 0.431403 -0.128081 -0.744919 -0.538417 0.170240 1.179052 -0.057905 0.242398 -0.139102 0.443246 1.381059 -1.083908 -0.225050 0.920931 -0.369342 -1.099390 0.100817 0.042545 0.682034 -0.409898 -1.012798 -0.312119 -0.863880 -0.675701 0.263252 -0.815800 2.177704 1.233042 -0.340998 -1.239352 -0.195492 1.489520 3.167864 1.278121 0.471269 -0.356990 -0.719956 -0.896867 -0.218536 -0.080227 0.141440 -0.287471 0.551302 -0.395682 -0.696325 -0.009007 0.159014 1.616764 0.713117 1.159173 0.294940 0.645146 -1.411589 -2.011324 -0.274679 0.886010 -0.290203 -0.736553 0.250270 -1.016240 -1.033864 0.588522 0.437430 -0.154709 -1.624858 -0.426158 1.376367 -1.198811 -1.253986 0.050966 0.872388 -0.593642 1.450544 1.776700 -0.759901 -0.010074 -0.205209 0.141000 1.347312 1.317859 -0.342066 -1.267324 0.328840 -1.460387 -1.023953 -0.375442 -0.530579 -0.547501 -0.954138 0.857772 1.277744 0.156493 1.511371 -2.124689 1.140717 0.444732 0.092221 1.482975 -0.277296 0.414758 0.069457 0.801333 1.913319 -0.921259 0.752236 -0.038112 0.128723 -0.351244 0.854842 -0.746913 -1.574880 0.131113 -0.595580 0.469978 -1.420166 -1.581805 1.036594 0.156658 0.883459 0.430944 -0.584880 -0.538970 -0.239312 -2.506068 -0.487126 0.193266 1.135544 -0.844568 0.533827 0.428819 -0.615757 1.144038 0.647148 -0.831590 -0.809287 0.478796 0.792259 -1.672319 -0.806274 0.267144 -1.509622 -1.379407 -0.349065 0.405976 -0.546486 -0.439103 0.540440 1.080969 -0.713077 -1.319587 0.695088 -0.250320 -0.855026 -0.360334
インスタンスメソッド -0.512945 -1.250790 0.229393 0.844376 -0.635292 0.040071 0.804423 0.323503 0.799319 0.128043 1.346527 -1.664198 -0.882870 -2.652662 0.153339 1.113840 0.043026 -0.444555 -1.835527 0.247188 -0.755241 -1.946047 0.751936 1.618612 0.946077 0.653099 -0.262344 1.239470 -0.370201 -1.311134 -0.275009 -0.738099 0.141423 0.694922 -0.057593 -0.495763 0.045283 -0.429845 0.909155 0.285387 -2.499368 1.016333 -1.291350 -0.414180 1.342622 0.618657 -0.792690 0.867758 -1.771611 -0.292877 -0.067372 -0.722698 0.602169 -0.343641 0.872880 0.528189 -0.627766 0.128251 0.050160 1.096871 -1.086884 -0.251751 -1.090817 -0.179179 0.345393 0.608539 -0.231633 -1.432812 1.262753 -0.422868 2.050516 -0.785644 -0.216628 0.567364 -0.486214 0.052477 0.278827 0.856513 -0.032906 0.292193 0.895298 -1.726413 -0.208427 -1.833974 1.151753 -0.297040 0.670934 0.369303 0.934589 -0.072168 0.282471 -1.077371 1.557036 -0.266909 0.172579 -0.593642 -0.398131 0.133391 -1.900776 0.004264 -1.433003 -0.642903 -0.215688 0.139127 -1.534669 -0.600529 -1.140219 -1.127706 -0.513570 -0.920937 0.744600 -1.476625 0.691465 1.937653 0.263458 0.189489 0.015366 0.036912 0.164624 0.638051 0.210052 0.145864 0.462332 -0.433475 0.826962 0.406535 0.596037 1.043757 -0.177950 0.389405 0.330672 0.138927 1.017480 0.181341 -0.075349 -0.104652 -0.965365 3.030067 -0.865835 -0.566626 0.883208 1.490089 1.497539 1.685169 1.079780 -0.490293 -1.344779 -0.777429 1.435531 0.064031 0.939673 0.344431 -0.185749 -0.108961 0.130242 0.106041 -0.798249 0.526459 -1.623853 0.275679 -0.537842 -0.148139 -1.600738 -2.018157 1.268696 0.021513 0.258946 -0.175698 -1.226306 0.258310 -0.214380 0.634059 -0.954450 -1.034605 -1.855286 0.215788 -1.614020 -0.559351 -0.704579 1.167130 0.840317 0.639657 0.973777 1.195010 1.017679 -0.320177 0.622936 -0.575502 -0.854055 -0.971253 -0.030229 -0.285214 0.169920 0.554415 1.216326 -1.090832 0.318429 -0.553261 -0.371633 0.372566 -1.004338 2.258410 -0.481205 1.222404 0.726078 2.426500 0.130813 0.884991 -0.740764 2.355787 1.339905 0.012501 0.586204 1.972248 1.098710 -0.032933 -2.216231 0.001468 -0.529459 -0.933282 0.223908 0.966687 0.854599 0.513977 1.684667 0.692010 0.999324 -0.393266 -0.523367 0.934843 1.047725 1.270184 -1.622871 -0.757178 -0.439065 2.452508 2.720936 2.452337 1.407404 1.840025 0.175174 -0.865782 0.189197 0.971830 0.796757 0.244521 -0.102339 -0.912322 -0.203636 -0.244818 1.491693 -1.146712 -2.148822 2.689301 1.146248 -0.791918 0.274532 1.972174 -0.505824 -0.562311 -1.557838 -0.090748 -0.867866 -0.007348 -0.024108 1.078413 -0.008740 0.779539 -0.236512 0.446672 -0.554703 -1.462798 -1.064565 0.264319 -0.954345 -1.730776 -1.355553 0.954388 0.871489 0.505772 -0.690892 0.462131 -0.536512 1.792301 0.873141 1.075309 -0.120922 0.557379 -0.634913 0.910148 0.659502 -1.321461 0.651747 1.016522 0.078154 0.062696 -0.848806 -0.212844 -0.747307 -0.724509
インスペクション -1.883629 0.798724 0.033638 0.977807 0.458033 -2.235198 1.135782 0.454156 0.241911 -1.344172 -1.179672 -1.324145 0.536443 -0.686663 -1.486110 -0.569819 -0.036968 1.235693 -0.364472 0.610328 0.669091 1.381765 0.148074 -0.502343 -0.156585 0.371072 -0.821207 -1.061298 0.228117 0.407328 -0.033724 -1.196733 0.520291 0.030051 1.682325 -1.864265 1.499211 0.964322 1.786440 1.465780 0.398256 -0.556553 0.081852 0.544112 0.978819 -0.140121 0.580613 -0.273776 -0.813300 1.340112 0.124579 -0.343498 -0.902031 -1.082811 -0.148764 -0.197104 -0.615794 -2.149294 -0.639382 -0.868641 -0.343984 -0.399445 1.065406 0.402237 -0.778537 -0.995536 -0.682440 0.701639 -1.861301 -0.657891 -0.808961 1.144200 -2.428146 -0.082995 0.307705 -0.369025 -0.956560 0.615262 -1.623225 0.445246 -1.720351 -0.233922 0.063143 -0.910011 -0.135288 2.078418 0.397052 -0.120037 0.827629 -0.252570 -0.899658 0.537030 -0.985878 -2.575643 1.056318 0.316924 1.467358 0.191539 1.648005 -0.672060 2.261433 -0.345767 0.729152 -0.335666 1.913816 2.174376 1.087536 0.726281 0.161966 0.998746 -0.398287 -0.705379 0.442114 0.867550 -0.149274 0.946328 0.615337 -0.518806 0.036766 -0.328943 0.908394 -2.033275 -0.796164 -0.716091 0.646346 -0.998826 0.278776 0.247273 -1.405349 -1.465932 -3.657090 -0.103010 -0.205709 1.377605 0.268594 -1.380488 1.091154 -0.506952 0.685772 0.623660 -0.450738 1.187272 2.563423 -0.416743 0.505539 0.676909 -1.340157 -0.153989 -0.294601 -0.185594 -1.412386 0.533381 0.375952 0.854387 -1.822843 1.393691 1.274651 0.358746 -0.113513 0.555069 -2.091402 0.037638 -2.713844 0.199945 0.364156 2.683062 0.171311 -0.346956 0.265668 2.145077 0.095727 0.304063 1.843516 1.098386 1.185730 0.117919 -1.338320 -0.280126 0.711181 -1.194147 1.052618 -0.877278 -0.596002 0.048475 0.050400 1.328643 -0.761741 0.341105 -0.388267 1.515499 0.720450 0.588797 -0.687401 0.574440 -0.810396 -1.153973 -1.515899 -1.736800 0.267593 -0.627364 -2.078111 1.639598 -0.106548 -1.626339 0.346184 0.166523 -1.184574 1.573433 0.008051 -1.730030 -2.766194 -0.530794 0.552553 -0.096648 -2.405599 -1.424291 0.765419 0.193085 0.518239 -0.918388 0.913338 1.431718 0.624180 -1.834484 1.309864 -0.113074 0.089419 -0.657316 -2.378254 0.414977 -0.002515 -1.186735 2.017112 1.767090 0.419010 0.038287 -0.598779 0.185153 1.482996 -0.668719 -3.339899 -0.573918 0.412937 -1.160022 2.113453 1.295386 -0.243442 0.012854 0.757769 -0.902548 0.168589 -0.295429 0.358322 -0.596491 0.392573 0.772346 -0.217450 -0.434240 0.263232 -0.013523 -0.271426 -0.220112 -0.078253 0.408790 -1.244268 -1.050188 -0.007258 0.764767 -0.335909 -0.908396 -1.306176 0.070565 -1.568283 0.128002 2.455759 -0.064436 -0.505739 1.635613 -0.179100 -0.008601 1.031602 0.830210 0.547679 -0.817481 0.202990 -1.221354 0.483536 -0.118270 -0.195976 -0.606917 -1.033372 1.586562 1.221684 -0.686908 -0.013084 0.149575 0.739441 0.959608 0.197982 1.732194
インタプリタ -0.616080 0.209214 -0.409538 -0.892773 0.338477 -0.913911 -0.791633 -1.507142 0.302660 -1.322602 -1.005025 -0.723752 -0.485378 1.051704 1.327261 -0.474588 -0.698545 -0.566886 -0.785672 0.351616 0.267027 -0.744865 0.953374 0.462293 -0.352269 1.602635 1.428320 0.921987 0.629619 -1.897218 -0.829379 -0.744455 2.074365 1.055280 0.540066 -0.033242 0.405652 -0.429428 0.506588 -2.010793 0.406726 0.480088 1.187792 -1.948664 -0.607885 0.969062 -0.211599 0.088475 0.110014 0.619976 1.383374 0.464492 -0.023144 -1.084254 0.780453 -1.832358 1.120988 2.524446 -1.647962 -1.395957 0.940488 0.187246 1.182383 0.605650 -1.898081 1.306207 0.479418 0.299045 -0.460770 0.884136 -0.340374 0.650491 0.385574 -1.298421 0.569046 0.003064 0.329182 -0.603007 1.058245 0.095487 0.274185 0.325170 -0.872182 -2.127981 -0.037368 1.464793 -0.437703 0.020164 -1.484451 -1.601907 2.093959 0.610115 0.394311 -2.741610 -1.387352 1.695829 0.870636 -1.859382 1.009848 1.677579 -0.503134 -1.579040 1.402812 0.072888 -0.483958 0.229217 -0.340216 -0.704311 0.097654 -1.572526 -0.487393 0.375558 1.300442 -1.007252 0.757828 -0.456116 1.636112 -1.191870 -0.124739 0.057709 0.427923 -1.489310 -0.183107 -1.568837 0.560051 0.650372 0.368449 0.066404 0.495625 1.794674 -0.228122 -0.506402 0.691237 -0.056905 0.244204 0.374507 -0.470286 0.008305 -1.566056 0.349142 2.205915 -0.150842 0.064492 -0.429208 -0.103594 -0.879129 -0.290722 -0.154636 -0.760421 -1.776256 0.594164 -2.536802 -0.391820 -1.620180 1.701782 -0.297361 -1.102790 1.594456 -0.817917 -1.728450 0.396941 -0.160909 -1.271509 1.372782 -1.051645 0.542166 0.747911 1.173746 -1.458381 1.522696 -1.645767 -2.941973 -1.065075 -0.883637 0.029286 0.146107 -0.043987 -0.694303 -0.906522 0.901201 -0.909288 -0.202656 -0.802904 1.615333 1.273727 0.321987 -1.046159 1.209961 1.199319 -0.036935 -1.918270 -2.369411 0.149558 1.076578 0.215841 -0.374335 0.986508 -1.311047 -0.163527 0.290873 0.769832 -1.889092 1.153072 -1.240999 -0.524832 -0.718968 0.186740 -0.625276 -2.170095 -1.344495 -1.984126 -0.133221 0.214248 -1.988719 -0.023174 0.820799 1.994909 0.062733 -0.511849 -0.839360 0.651264 0.459237 0.900793 0.123484 -0.886971 -1.490742 -0.219669 0.125652 -1.826852 -0.498860 -0.198240 0.164048 -0.645303 -0.750116 0.052971 -0.034195 -1.117732 1.148980 -2.197218 -0.151480 0.567295 0.607633 -0.822281 0.923348 0.360772 0.442839 -0.594933 -0.224822 1.306020 1.037022 0.676532 -0.000268 -0.721848 -0.269683 -0.824059 1.317626 -1.635056 -0.558255 0.219440 0.076020 -0.491127 -0.622029 2.027836 0.812952 0.114396 -0.408269 0.096145 -0.807566 -0.111969 -0.939464 0.449885 -1.475472 -0.228820 -0.263308 -0.295023 0.821893 1.756953 -0.030064 -0.255377 0.371137 0.645314 -0.111222 -2.067655 0.785825 -1.470961 1.333978 1.223004 -0.914242 -0.338731 0.025158 1.372253 -0.535465 -0.219360 -0.475941 -0.796618 1.980462 -0.590839 -1.996600 0.403557 -0.032477
インデクサ -0.846545 -1.342237 -0.124199 -0.645443 0.007154 -0.274164 1.382858 0.004911 1.304395 -1.869149 -0.165027 1.029939 -0.253876 1.105651 0.755229 -0.505023 0.903848 -0.743987 -2.148555 -0.406787 -2.921608 -0.830755 -0.350333 -1.743721 -0.294725 -1.535323 -1.083981 -0.480866 -0.758878 -0.262888 -0.039377 -1.475506 1.329649 0.446476 -0.479428 1.217908 -0.071844 0.332814 0.357852 -0.585240 -1.294637 -0.495469 0.802034 0.584149 0.535051 -0.238503 0.009613 0.069925 0.417085 -1.168992 -0.273214 -0.495863 -0.970634 -0.372759 -0.758402 -1.613682 0.366291 0.212379 0.455972 0.032499 1.908482 0.635659 -0.588805 0.992472 0.536835 0.169960 -0.559239 0.690116 -1.464181 0.100825 0.944050 1.366959 -1.197698 0.459622 1.442805 -0.935037 -0.048012 -0.358784 0.961192 0.971751 0.649764 -0.560797 1.519895 0.485915 0.629853 0.111923 -0.411780 -1.659512 -1.923118 0.434602 1.057851 0.692492 -1.707746 -0.054269 1.783779 -2.519946 -1.990872 -0.125393 0.581923 0.952326 -1.555563 -0.290463 -0.372165 0.936607 -0.325618 0.020327 -0.771285 0.716266 -0.115315 0.019938 0.578798 -0.371286 -0.217089 0.131298 0.582412 -0.169347 0.617759 0.479485 -1.817754 -0.910566 0.292655 -1.223269 -0.057781 0.542203 0.439462 0.091243 0.748593 1.523380 -0.381664 1.042212 -1.062563 -0.633350 -1.483941 -0.133223 -1.012395 -0.762266 0.191791 0.648881 0.583137 0.337246 -1.142262 -0.774179 -1.572517 -0.569616 0.144399 0.511819 -2.399278 0.829539 1.088898 -0.732692 1.636659 -0.593593 -0.732585 1.641884 -0.366148 -0.510816 0.710334 0.426519 -0.362634 0.710028 0.626596 0.875639 -1.275038 0.398825 -0.250843 2.102912 1.006200 -0.254246 -0.017991 0.437742 0.983809 0.705058 -0.957591 -0.736028 -1.087353 -0.807329 0.134649 0.148782 0.254687 0.639411 -0.205872 0.348732 0.781868 0.186367 0.608187 0.337415 0.805414 -0.961177 -0.279275 -0.849047 0.134139 -0.250580 -1.049588 -1.226396 0.538515 0.343697 0.775995 0.367886 0.122453 0.581307 -0.196591 1.966047 -1.226998 -0.498653 -0.847007 -1.572863 0.422879 0.833470 0.695223 -0.677091 -1.310043 -0.565824 0.380020 -0.863042 0.763654 -0.994259 1.397718 -0.507625 0.541775 -0.037339 -0.721296 -0.562448 1.292986 0.723601 1.024464 0.698435 -0.719486 -0.699022 -1.879976 -1.420046 -0.059260 -0.365071 -0.595648 -0.271658 -0.800667 0.761032 -0.189451 1.264174 -0.243101 0.091430 0.255766 -0.460265 -1.023932 -0.513293 -0.169318 0.168701 -0.753880 -0.043354 -0.880909 1.457732 -1.395652 -0.235138 -1.039157 0.212442 -0.492910 2.889743 -1.234448 0.753634 -1.443357 -0.339137 0.889004 0.150661 1.289919 -0.375771 -0.303438 -0.040947 -1.126338 0.615283 0.624272 -1.525340 -1.291303 0.253782 -0.731468 -1.553660 -0.932393 -0.459286 0.350127 0.373885 0.773955 0.658579 -1.604337 -1.922505 1.187933 0.309799 0.089050 1.567135 -1.011473 1.152136 0.823628 -1.762520 1.133261 -0.451564 -2.000468 0.430792 0.341602 -1.035867 0.813076 0.775325 -1.296810 0.326971
ウォーターフォール・モデル 0.589099 -1.417578 -0.646751 0.858882 -1.538862 0.049343 -1.729064 1.414574 -1.315159 0.133073 -0.299708 -0.211700 0.820747 -0.039731 1.696086 0.467691 -2.043303 -0.320758 1.175619 2.938468 0.912176 0.651369 -0.828789 -0.107896 -0.986193 -0.847664 -0.681800 0.377784 -1.184440 0.626287 -0.790494 -0.374003 0.209747 -0.304598 -1.152220 0.016307 0.069073 -0.132484 -0.070089 1.385413 -1.065530 -0.747925 -1.591699 -0.158300 -1.623152 0.017442 -1.079743 -0.634800 0.941060 0.680648 -0.654057 0.235713 0.603014 -1.816471 -1.517498 -0.198948 -0.057639 -0.387029 0.880262 0.034036 -1.854629 0.838676 1.112385 1.065093 -0.453452 2.294765 -0.116042 -1.511732 0.737397 -1.556558 0.446943 -0.457909 0.325578 1.603356 0.826638 -0.322059 -0.398183 -1.185155 -0.950633 0.161671 -0.526578 -1.103822 -0.051644 1.885303 0.651095 -1.004987 0.162801 0.812217 1.047513 0.734529 1.863221 -0.818995 -2.111591 -0.309234 0.534500 -1.232996 0.365534 -0.695238 0.038090 -0.521811 -0.729266 0.469155 0.277326 -0.676309 -0.444909 0.140398 -0.622286 0.497228 1.588807 2.301310 1.244149 0.178010 1.680481 0.149450 0.216013 0.370862 1.521020 -0.623254 2.156889 -0.369585 -1.388670 -0.950071 1.209747 -0.265497 -1.439813 -0.366837 0.318658 -0.190260 -1.543336 -0.230786 1.723163 0.508728 -0.785143 1.452822 -0.719823 0.655116 1.640335 0.638839 1.118696 0.967326 -0.557263 1.410505 0.132572 0.767892 0.105242 -0.716474 -1.221647 2.254062 -1.149872 0.196446 0.489213 -0.275240 -1.721046 0.145755 0.290765 -0.560490 -0.903710 0.664174 -0.697509 -0.240360 2.912747 1.582961 -0.512535 -0.818354 -1.132762 -1.194498 0.386679 -0.991300 0.081110 0.654213 0.305789 0.786326 0.607408 -0.498915 -1.173751 -1.306397 1.824749 -0.220378 -0.279352 2.055251 -1.251093 2.144299 0.579508 0.413413 -2.292261 0.678935 0.248453 -1.067598 0.711984 -0.433392 0.469328 -0.566634 -0.427750 0.781136 -0.531125 1.459758 -1.796257 -0.348012 -0.063200 -0.164738 0.274666 0.660464 0.972735 0.540739 -2.203616 -0.482803 0.143287 -0.905260 0.425336 -1.110815 -1.029829 0.334760 0.031942 0.414190 1.330066 1.704868 0.624659 -0.712639 -1.695767 -1.365587 1.361684 -0.999116 1.523014 -1.181562 -0.747987 -0.919699 -0.381650 -1.457361 -1.066523 0.613653 1.505341 -0.733392 1.040238 1.450750 -0.233335 2.253380 -1.703534 0.288505 -1.132103 1.199235 0.980150 -2.217804 -0.749527 -1.018370 -0.489885 1.577071 0.872309 -0.233886 -1.841224 -0.160705 0.561173 0.030603 -0.070471 0.168946 0.856134 0.834028 -0.646234 0.942827 0.236695 1.273163 0.355894 0.591715 1.000890 0.296442 0.605882 -0.162521 -1.426866 -0.553930 -0.779360 -0.083680 -0.052689 0.602969 -0.022086 0.364152 0.403163 -0.469798 0.643442 0.935822 0.066597 0.213788 0.348957 0.667826 -0.007423 -0.317213 1.022466 1.814212 0.375875 -1.369035 -0.661091 -0.379337 0.936061 -0.148216 -1.573769 1.288648 -2.523515 -0.831606 -0.481792 -1.725056 -0.909559 -0.304084
エクストリーム・プログラミング 1.609988 0.483652 -0.498121 -1.029289 -0.964650 -1.115908 1.654918 -1.326708 1.172737 -0.616533 -0.153844 -1.965896 0.982340 0.378953 -1.007946 -0.304402 -2.753702 -0.104503 -0.198857 -0.332551 1.492246 0.674401 0.349485 -0.445272 1.272833 0.566358 0.106186 -0.341613 0.059143 -0.317255 0.770327 -0.413497 0.584345 -0.999705 -0.303710 -1.500118 0.369137 -0.901199 0.840014 -0.497293 -0.048214 -0.004389 0.507455 0.498952 -0.316359 1.008637 2.313741 0.460111 1.090850 -0.004053 -0.679923 0.159066 0.302511 -1.031920 -1.418934 -0.627353 0.529162 1.232122 0.404431 -1.454954 -0.586947 0.868076 -0.906555 0.798579 1.829767 1.666678 -0.709001 -0.194776 1.779925 -0.237105 0.075791 0.737906 -0.476768 -0.125288 -0.098338 0.473133 -1.254512 1.466986 0.030089 0.830612 -0.149740 -0.463136 -0.462558 -0.875196 -0.279397 0.758478 -0.897472 -0.454449 0.061489 0.467095 -0.530908 0.290987 0.477376 0.193650 0.086342 -0.566212 -1.029812 0.034200 -0.151220 0.324855 -0.276469 -1.360076 -0.322543 -0.393483 0.771904 -0.723919 -0.255946 0.903580 1.432914 1.483191 -0.872580 -0.536493 -0.309518 -0.632918 0.226395 2.364287 -0.093582 2.160186 1.145496 -0.448741 -0.580861 1.102908 -1.023928 0.777448 0.310092 2.175337 2.120260 0.213935 1.176912 1.904104 -1.099325 1.942621 -0.384761 -0.756064 0.964152 1.119527 0.140372 0.302238 -1.685264 0.142258 0.723666 -0.633859 -0.636274 -0.304602 0.504837 0.958066 -1.174151 -0.272447 1.755599 0.322813 0.197250 0.073139 2.354572 0.622137 1.817820 2.827063 -0.750626 2.192906 -0.778018 1.105376 0.520088 1.322835 -1.051651 0.263537 1.841153 1.070621 1.577354 0.768705 0.382030 1.199193 -0.182572 1.087797 1.414255 -0.613562 -0.809439 0.054403 -0.572747 -0.037078 0.158313 -2.551693 -0.027658 -1.247206 -0.898792 -0.512997 -1.941828 1.776145 2.821902 -1.125236 -1.140799 0.819065 -0.703991 0.724959 0.866910 0.397590 0.773956 -0.557541 1.223413 -1.918092 -1.083658 -1.337330 -0.674380 -1.320222 -0.582209 0.856307 -0.987909 2.902138 0.131008 0.370529 0.906107 0.454190 -0.971486 1.423793 1.002294 0.168404 0.295382 -0.684955 0.879827 0.940656 1.271048 -0.964326 1.366744 -0.777840 -0.320045 -1.691995 -0.857693 -1.755859 0.117254 0.021675 0.041559 -0.491974 0.513029 -1.010863 -2.168646 1.477255 -0.407176 -0.294414 -0.025285 -0.005290 0.659909 -1.428550 -1.209848 0.957201 0.694366 0.606636 -1.102238 -1.358686 1.271787 0.142364 -0.001620 -0.921521 1.013360 -0.843762 0.825670 -0.709282 0.534287 -0.904722 -2.357707 -0.807533 0.352632 0.498191 -0.538488 -0.409678 1.163675 0.420935 -1.676121 -0.527120 -1.403648 -0.204732 -0.414273 -0.544233 0.042172 -0.847868 -0.420587 0.337140 -0.465696 -1.144132 0.093994 0.279599 0.226886 -0.487338 0.229977 -0.997207 1.703917 0.988063 -0.812984 0.331211 -0.452552 0.576502 1.065120 0.872175 -0.013457 -0.028632 -0.285863 -1.219504 0.761505 1.030824 1.080366 -1.762905 -1.034166 -0.003645
エディタ -0.696580 -0.506492 1.909220 -0.159346 -1.054889 1.523296 -0.615754 1.405281 0.224363 0.922302 -0.070483 -0.173062 1.552329 -1.664121 0.327363 0.090432 -0.417427 -0.706871 -0.389639 1.207583 -1.185468 -0.007009 0.086210 1.143050 1.630847 1.374739 0.335727 -1.488486 0.935892 0.478480 -0.043610 -1.389319 1.205895 -1.286840 0.802534 0.764091 -0.175630 0.789871 0.914287 -1.578961 0.736263 1.068297 1.651710 2.248339 -0.949927 -1.949841 -0.378660 1.634305 -1.149941 1.465443 1.433827 -1.713347 1.027386 0.174353 1.302246 -1.487137 0.141170 -0.042950 1.190327 -0.452282 0.133474 -0.017875 -0.354697 2.325939 0.136383 -0.669751 -1.440392 0.191448 -0.637443 0.961706 -1.992717 0.348641 0.402975 0.118412 -0.991975 0.056932 1.054708 -0.648680 1.163626 -0.516377 -1.005510 -1.143133 -0.556093 -0.545473 -1.280409 0.407515 0.024600 2.508607 -1.048730 0.494580 0.460924 0.701103 0.901850 0.494283 -0.299134 0.757667 0.939027 1.483296 0.367423 0.486450 -1.220884 0.866743 2.676387 -0.231715 -1.879027 0.454089 -0.531354 -0.519277 -1.888473 -0.832404 -0.665553 1.562539 0.286326 1.067026 1.151434 0.826041 1.057329 -1.921242 1.451366 1.837763 -0.568357 0.848664 0.218207 -1.018357 -1.302365 1.767174 -0.899261 1.576791 1.555994 0.194080 -0.099457 0.467687 -1.037419 -0.602696 1.698639 -0.267512 -0.689123 -0.375522 -0.287365 1.645745 2.863323 1.208605 -0.128723 1.578085 -0.765617 -0.450151 -1.159027 1.182508 -0.235695 -0.066905 0.080223 -1.151331 1.183835 0.748408 -0.544518 0.642756 -0.267324 -0.160881 1.010359 -0.740534 -1.249888 0.287045 -0.685838 -0.087555 -0.211714 -1.240580 0.019142 0.076219 -1.323820 0.582031 -0.359132 -0.195435 0.319873 0.891166 0.945344 0.124431 0.805770 0.040764 -0.723274 -1.111225 0.588608 0.089385 0.703999 -1.152972 -1.291185 -0.544834 0.679492 1.716507 -1.590703 1.123448 1.358718 0.189837 0.489462 -1.266377 2.110375 -2.222752 1.485693 -0.630241 -0.879028 -0.264956 0.102625 2.251296 -0.572398 -0.528778 -0.372431 0.816885 -1.092735 -0.692744 -1.454141 0.311076 -0.431846 0.130285 -0.071688 0.372183 -1.638140 -1.285778 -0.568426 0.536830 -0.931623 0.748125 0.794899 -0.938047 0.410495 -0.235880 -0.005086 0.190347 0.882190 0.614866 0.638006 -1.043889 0.684933 -0.661446 -0.355760 1.858173 -0.364428 -0.828953 0.000168 -0.377042 -0.068500 -1.986805 -0.490352 -0.051061 0.946476 1.069483 0.576368 0.657156 -0.418887 -1.095643 0.089571 -1.170451 -0.044548 -0.543441 -2.319428 -1.829690 0.374646 -0.080272 -0.216448 0.117651 0.084306 0.780117 0.735051 -0.597020 -1.032589 -0.446785 1.249505 1.159401 0.749508 -0.899671 1.535615 1.258746 -0.425278 -0.559624 0.951041 -0.121832 1.004278 -0.378411 1.510167 0.209339 -1.505155 0.555062 1.449360 0.610457 -1.574366 1.369532 1.279153 0.364901 -0.413137 -0.136236 0.254899 0.425550 -0.008115 0.751189 -0.392279 -0.810679 1.102623 0.193755 1.929256 -1.303235 -0.620823 0.529397
演算子 1.179297 -0.234625 0.777293 0.898152 0.984413 -0.537771 1.622411 -1.306399 1.640427 -1.611830 -0.463745 -0.142672 0.026667 -0.794851 0.582423 -0.957349 -0.674685 0.883928 0.967788 2.406255 -0.239374 -1.095073 -0.949831 0.062980 -1.497271 -1.044780 -0.122434 0.699855 -0.937348 2.194006 0.053397 0.807449 0.229915 0.070907 -0.297793 -0.357110 0.536970 1.084834 -0.363001 0.227173 -0.519435 0.838593 -1.021329 0.572195 -0.501699 -0.552258 -0.621406 -1.006365 -0.510517 -1.215661 -0.239661 0.199645 -1.502893 -1.437847 1.759557 -0.019642 1.408197 -0.232643 0.114804 -0.257107 -0.118641 0.289429 -1.327219 -1.020944 0.672040 -1.479280 0.748990 0.238296 -1.055643 -1.435371 -0.096218 -1.116315 -0.646616 -0.112558 0.316286 0.922914 1.016319 0.089004 0.465111 0.275410 -0.622428 1.857540 1.196269 0.274453 0.090036 -0.650924 -0.733625 1.500593 -0.726720 -0.241616 1.877063 1.419910 0.290781 -0.095079 0.211611 -1.558590 -1.588209 0.668351 2.590493 -0.212767 -0.162213 -0.755941 0.338142 -0.331909 0.313038 -0.372519 -0.344996 -0.696313 0.106233 -0.865574 0.438634 -0.852084 -1.364084 -1.134793 0.384091 -0.643966 -0.914717 0.992283 0.412541 -0.143109 0.274247 -0.707413 -1.325490 0.452826 0.246587 -0.123771 -0.802221 2.208563 -1.333865 0.242914 -0.177840 0.173777 -1.746425 -0.767803 -0.215218 -0.798687 0.771810 1.176728 -0.451798 -0.920994 0.171269 -0.387570 -0.872046 0.762257 0.441985 -0.261420 0.098781 1.850001 0.543815 0.701489 -0.325238 0.447592 0.395470 1.247387 -2.387301 0.925748 -0.019270 0.031924 -1.137816 -1.303272 0.601852 -0.385245 -0.893480 0.674907 -2.509500 -0.688110 -1.155125 -1.835553 -0.544947 1.624870 -0.529940 -1.177985 -1.232693 1.163734 -0.488633 0.177278 0.545662 1.207205 -0.587524 -0.032203 -0.428262 -0.681589 -0.220126 0.782130 0.494383 2.066705 -1.821594 1.227760 -0.304208 -0.450849 -1.324062 -0.413889 0.092708 0.882726 -1.239894 -0.551414 0.900885 -0.923535 0.036102 0.108737 -1.611999 1.415378 0.371037 1.473134 -1.249634 -0.468548 1.216097 -0.860317 0.708145 0.286043 0.050411 -0.151181 -2.001575 -0.125313 -1.420090 1.329932 1.465724 0.148998 0.426097 -0.630511 -0.635020 -0.028361 -1.775164 0.099835 1.455197 -0.594053 -0.448598 0.169565 0.098384 -1.582575 -0.146919 0.837763 0.703549 -1.265016 0.191424 0.960355 0.523451 -0.719249 -0.702985 -0.028434 1.588723 0.303107 0.724786 0.534215 1.808757 -0.469802 -1.864970 -0.594137 -0.859518 0.762418 1.976595 0.627337 -0.010204 -0.462832 1.344179 1.026518 0.984189 -0.821590 -0.824531 -0.619875 0.037869 1.791865 -0.448922 -0.622781 0.583351 -0.616126 -1.927889 0.719744 0.779308 -1.761234 -0.408956 0.411900 0.436436 -1.088428 0.399441 -1.498151 0.964494 1.361905 -1.413409 0.195985 1.397244 0.084535 0.444547 0.138142 0.889727 -1.250892 1.147318 0.307006 -0.401337 1.115134 -0.379970 -0.019642 -0.700345 0.514542 -1.312090 -0.070754 -0.337627 -1.452243 -0.120050 0.303902
エンディアン -1.002231 0.915759 -0.432942 -1.548499 -0.690234 1.015689 -0.229155 -0.341620 0.597211 -0.416748 -0.924562 -1.469077 -0.821575 0.542429 -1.118257 1.118505 -1.632985 0.985966 1.099424 -2.025755 -0.956013 0.763861 -0.044718 1.709493 -0.054194 0.051469 0.319321 1.349426 0.388700 -0.963421 0.521589 1.042108 0.102343 -1.027616 -0.519666 0.445674 0.094260 -0.793860 1.226347 -1.081905 -0.939603 0.258960 1.173868 0.313354 -1.156771 -0.397133 0.018258 -0.524265 -0.385010 -0.157331 -0.802890 0.835140 -0.060495 -0.091429 0.209838 -0.421480 -2.044902 2.076049 -0.939329 -0.254968 0.625118 -0.302010 -0.922032 -0.816995 0.165694 0.518177 0.274138 -0.481355 -0.627982 0.441894 -0.832026 1.281471 -0.164285 2.152528 2.145679 -0.113086 1.267445 -0.222509 0.238708 -0.017979 -0.968788 1.648646 -0.374742 0.613860 2.425841 0.345902 -0.633836 0.494089 -1.185695 2.114715 -0.357265 -0.320570 0.524637 -0.690583 1.398974 0.275384 -0.823361 -1.681029 -0.022188 -0.962515 -0.829212 0.621218 0.265824 1.995786 -0.580690 -0.866834 -0.160225 0.524751 -0.068679 -1.092660 0.375409 0.298445 0.229918 -0.865343 0.411258 -0.827537 1.444630 0.176355 -0.735059 -0.032760 -1.662659 1.361888 -0.109103 0.070269 0.159662 0.480294 -0.470757 -0.589929 -0.417877 1.071346 -0.466719 -0.269934 0.783669 3.056831 -0.769964 0.496847 1.105100 -0.034951 -0.929537 0.193327 1.794015 -0.267997 -0.745477 1.479533 -0.078969 -2.656658 -0.696861 -0.072524 -0.231377 0.943811 1.318482 -0.943195 1.066090 0.941978 -1.038263 -0.140812 0.824912 1.841106 1.622874 -1.161385 -0.470608 -0.550677 -0.058820 -0.052275 -0.215428 -0.228838 -0.671393 -0.182285 0.352748 1.496054 -0.848250 -0.675288 -0.964688 -0.367171 1.764481 1.050462 -0.579162 -0.105386 0.903317 -0.657496 0.051620 -0.889402 -0.716646 -0.635120 -2.095865 0.632832 -0.316255 -0.143777 0.117118 1.083156 2.100576 -0.366150 -0.588430 0.460176 -0.111803 0.935931 -0.192659 0.259953 -0.470181 0.189730 -1.655013 0.196566 -0.875470 -0.999838 -2.362990 -0.323405 -1.033510 -2.071235 1.685890 0.917134 0.504446 1.456293 1.016693 -0.709770 -0.733558 -1.116255 -0.123381 0.345636 -1.363178 -1.611972 1.837657 -1.479882 0.672083 0.267936 -0.203292 2.004142 1.696458 -0.826075 -1.044560 0.056660 0.386962 -2.255945 1.942275 1.322562 0.133902 0.107707 1.004362 -1.228351 -0.398538 2.923398 -0.882969 -0.039955 0.290136 -1.436530 -1.080599 -0.851056 0.855816 -0.083309 -0.284791 0.952658 -0.834164 0.167432 -1.336127 -0.223276 0.339786 1.306140 -0.230055 1.026827 -2.862729 0.230374 0.924617 -0.586249 -0.167495 1.111722 -1.674281 -0.811686 -0.456512 0.273742 -1.727450 -1.178330 -0.511484 1.357467 0.272197 -0.290246 1.218736 1.727367 0.689463 -0.965124 2.317364 -0.736514 -0.570066 1.099565 -1.290242 1.140113 -0.405045 -0.246467 0.617941 0.416523 2.549697 1.590218 1.715438 -0.419463 0.603542 0.049424 0.123519 2.011661 -0.510952 0.845403 1.246647 0.034122
エントリーポイント -1.533820 -0.356522 0.496043 0.519843 -0.186617 0.776811 -0.020508 -0.328410 0.957716 -0.862095 0.052713 0.279482 -0.342836 -0.456037 -0.217944 0.641560 0.355788 0.407328 1.858105 -2.218603 0.864788 -2.708149 2.054915 -0.472204 -1.718145 2.290233 0.376583 -0.112160 -0.618258 0.683347 0.669529 -0.305315 -0.638366 -1.089908 -0.900823 -0.075168 -0.341592 0.015991 -0.366193 0.384706 -2.037221 -0.345269 0.174525 0.952908 -0.263641 -0.474858 -1.093763 -0.853486 0.066149 -0.828924 0.976102 -0.221100 0.569434 -0.205235 0.772039 0.162922 -0.856316 0.337983 -0.549826 2.453364 -0.940362 -0.638197 -0.615090 0.394804 1.180454 0.902627 2.147612 0.408976 -0.255013 0.667358 0.565570 -0.396967 0.671442 0.354994 -0.197078 -0.479157 0.616652 -2.133639 0.131867 2.097502 0.733276 -0.476485 -0.389284 -0.763377 0.682427 -0.505443 2.167061 -0.108295 -0.461226 -1.923456 1.008365 0.990063 0.109579 -0.018012 -0.644732 1.394297 -1.139538 1.092866 -1.390647 -0.405930 -0.350843 1.664919 -0.900094 0.247323 0.240458 1.237457 -0.826829 1.196743 -1.179856 -0.930400 -0.924979 0.495307 -1.132952 0.372884 -0.037101 0.542091 -0.045390 1.261147 1.608875 0.301713 -1.579614 -0.395674 1.917651 -1.570095 0.291621 -0.041710 -0.672893 1.080748 0.145210 0.279656 -0.939289 -0.362600 1.731092 2.058799 1.945699 0.284890 -0.795720 0.801227 0.651588 0.289474 0.729714 -0.327958 -1.649977 0.728168 0.061821 0.600641 -0.583743 2.994239 -0.237817 0.826375 1.682005 0.654387 0.354746 1.696661 0.185656 -0.707487 -0.449909 -0.260560 0.208282 0.282266 -1.651515 -0.354219 -0.758674 -1.352195 1.437579 -0.524551 -0.324466 -0.543475 0.044694 -1.271972 0.573918 -1.126355 -0.268037 0.229018 0.356241 0.407212 0.166640 1.055767 -0.681615 -0.513760 0.118994 -0.182237 -0.453754 -0.596846 -0.182184 2.396140 -0.275305 -0.733258 -0.690302 -0.826837 -0.283630 -0.977233 1.060740 -0.740385 0.799912 -0.731454 -1.788055 -0.722373 -1.315489 -0.321014 0.235400 0.715122 0.131055 0.854054 1.339193 1.281382 -0.157310 0.703547 -0.147919 0.510726 -0.465171 -2.134920 -0.464792 0.393266 0.855396 0.316840 -0.653643 1.248409 -0.349299 1.100095 -0.505405 -0.007160 -0.313001 -1.254337 0.289404 1.120696 0.289909 0.619480 -1.135701 -1.189172 -1.383266 0.045460 1.472315 -0.528777 -0.298479 -0.115052 0.922892 -0.693108 0.716851 -1.128463 -0.495255 1.080575 -0.736231 1.088654 0.656772 0.616250 -0.421808 0.686423 -1.887501 0.388033 0.565796 0.953761 1.329924 0.463329 0.022884 0.314814 -0.541713 0.513170 -1.209162 0.182334 2.195086 0.499414 -0.941378 -2.331457 -1.901772 0.165285 -0.692269 1.087863 -1.082040 0.491780 -0.499009 -0.507142 -0.088272 1.092902 0.104713 -0.615198 0.072066 0.579447 -0.389788 -0.560324 -0.506140 0.755348 -0.797744 0.838296 -0.882202 -1.280947 -1.342852 0.899174 0.812141 -0.816757 -0.202811 -0.873779 0.928441 -0.226347 -0.074948 1.208846 -0.430404 2.269995 -0.838538 0.033098
オーサリングツール -0.807137 0.114535 -0.122566 0.878154 -0.575357 -0.898751 -0.851565 -0.044627 0.600261 -0.814296 0.405104 -0.975539 0.596268 0.361670 1.201471 -0.313108 0.885920 -1.624616 0.405623 0.986088 2.136446 -1.299313 -0.414899 0.308480 -1.452415 1.805580 -1.259003 -0.164917 0.597543 1.932009 0.325838 -0.812486 0.936975 1.348134 -0.147091 0.663606 0.992539 -0.398424 1.541234 0.764836 -0.725876 1.028970 -0.204951 -0.555468 0.260984 0.098087 0.592494 -1.600944 -0.329661 -0.106313 -0.263777 -0.188997 0.416310 0.237898 -0.759991 -0.015337 -0.073558 -1.559168 0.645601 -0.191156 -0.490070 1.040494 -1.570146 0.414549 0.780926 -0.415205 0.478817 -0.210008 1.759020 0.480075 -0.336849 1.174793 0.733387 -1.584570 1.189225 -0.964410 1.453383 0.656476 0.136926 -0.855820 -0.074754 -0.851854 0.555318 -0.467603 -1.189102 0.938078 -0.449013 -1.035869 -0.600714 -0.924628 -0.693809 -1.361993 -0.975736 -0.206854 -0.433424 -0.220840 -0.271646 0.437195 -1.628222 2.290323 1.819880 -0.479795 -0.191600 0.220315 0.692600 0.106317 -1.978285 0.262423 -1.282871 0.288830 0.424750 0.732941 -0.047214 -0.220714 0.177294 -0.371673 0.758126 0.183443 1.391663 -0.479965 0.554546 -0.574162 0.461109 0.049838 -0.832540 0.827724 0.188868 -1.475013 1.677908 0.568388 -0.093014 -1.130209 0.402247 -0.284016 0.390677 -1.126025 -2.134207 -0.871414 -2.197410 0.656871 -0.082274 0.649319 -0.314992 0.319232 -1.074629 1.090279 -0.431646 -0.584251 0.848894 2.627316 0.811859 -2.565248 1.179174 2.765070 0.183209 0.820074 1.083496 0.490665 0.236517 0.745704 -0.364825 1.207349 1.037042 0.038202 -0.366303 0.698209 0.896713 1.267738 1.485729 0.371575 0.459996 0.650167 0.788659 -0.910602 -0.972342 1.442827 0.375559 1.950845 -0.214943 0.675790 -1.555563 -0.742976 0.697609 0.388693 1.115401 2.313919 -0.702282 -0.169480 1.103751 0.121583 -1.719228 0.376669 -0.727603 -0.887177 3.455678 0.752496 1.885858 1.241678 -0.036418 -1.400472 1.011665 -1.659696 0.235644 -0.185698 0.145140 1.258648 -0.040182 -1.253664 1.336936 -1.417167 -0.765588 -0.548068 -0.167400 -1.563420 -0.150794 -0.760764 0.739891 -2.816363 0.039847 -1.484414 1.011065 -1.330983 0.990492 1.306644 -0.767620 0.569550 -0.210523 0.808267 1.550905 -0.298942 -0.402851 -0.002026 -0.977849 0.786343 0.563445 0.922598 1.443113 0.883083 0.319951 0.819767 0.929516 0.617840 0.254663 0.792499 1.130198 0.042184 -0.292922 1.070304 0.164039 -1.233057 0.534629 -0.418938 0.638540 -0.660842 -0.578126 0.670781 -0.199503 -0.255054 1.275306 -0.893317 -0.303704 0.684322 -0.231311 0.631418 0.547642 -0.031270 -1.010836 -0.923596 0.260425 0.137927 -1.160746 -0.651177 -0.812829 -2.421839 0.705490 0.775778 0.596066 0.711407 0.238132 -1.432877 1.305958 -1.227004 -1.242779 -1.078933 -1.933768 0.760087 -0.731430 -0.215310 0.055087 -1.246400 -0.691708 -0.713047 -0.912686 1.297328 -1.588586 -0.300095 -1.828996 -0.225469 -1.025977 0.506730
オートボクシング 1.212368 -0.974619 -0.048092 0.980963 -0.377703 0.631029 -0.001049 -0.291470 0.450732 -0.294644 0.195787 -1.969924 0.335192 -0.560079 0.179810 2.013991 1.382531 -0.343255 0.003705 0.503050 0.835858 0.447445 -1.248008 -0.662688 1.588163 0.186524 0.324803 0.516397 0.427013 0.413477 0.100924 -0.958871 0.053577 2.052995 0.304879 -1.062399 0.332580 0.191262 1.070928 -0.210790 -0.230043 -0.475354 0.962880 1.403136 2.814050 -3.114536 0.622842 -0.132269 -1.419819 -0.801601 -1.830612 -0.890780 -1.321311 0.463724 -0.435041 0.567168 -2.272733 -1.973411 -0.415970 0.064412 0.755999 -0.558412 0.123267 -0.506016 0.890008 1.893349 0.479600 -0.725187 0.128229 0.715558 -0.031040 -0.305741 -0.081129 0.119242 -0.265406 -0.600980 0.076597 2.083787 -0.071810 0.598161 -0.775053 -1.515881 -0.236563 -0.219561 -0.165475 -3.267684 0.721132 0.591401 1.275648 -1.612839 -1.306459 -0.849930 -1.843337 -2.581975 2.201114 -0.864085 -1.279040 1.617300 0.380376 0.380721 -0.671222 1.575796 1.015925 0.320803 -0.098564 -1.739051 0.119422 -0.549920 2.996770 1.609620 0.141950 -1.576131 0.393623 0.209536 -0.054452 0.241769 -0.980552 1.662947 -0.544192 1.401250 1.367654 -1.011649 -0.963185 1.286977 0.465220 1.241830 -0.123021 -1.072517 -0.031470 1.607483 1.568037 0.126334 -0.453817 2.381977 0.361914 -0.584239 1.087181 2.021032 -1.629371 -0.124758 0.695983 1.999819 0.602577 0.637231 2.281683 0.645065 -0.504265 0.543904 0.495769 0.925362 0.309710 -0.322314 0.911414 0.431494 -0.057196 0.600436 -0.532642 0.661779 -0.193857 -0.415366 1.209577 0.036725 0.401056 1.238474 -0.585200 1.411034 -0.498248 -0.886679 1.717982 0.709671 -0.263301 -0.237783 -0.204948 0.765981 1.041834 -0.558141 -0.202920 0.956366 -0.736064 1.318442 -1.507708 2.763894 -1.481775 -0.454480 -0.220720 -0.466534 2.098613 1.118358 -1.171226 -1.477514 -1.811497 0.114263 -0.110567 0.996846 -0.348750 0.228965 0.842511 -1.932419 1.018113 -0.426642 -0.869851 -0.239173 0.209950 -0.234889 1.736107 -0.568540 -1.434767 0.521438 -2.180066 1.748297 1.000385 -1.952476 -0.480974 0.146420 0.235423 0.378877 0.305887 -1.847207 0.139266 -0.874735 0.331288 0.086412 -2.312632 0.100604 0.723016 0.619915 -0.027533 1.252563 -0.019401 0.843361 1.293890 -1.027691 -0.645899 -0.134875 -0.040850 -0.944438 -0.135676 1.473807 -0.384631 1.672751 -0.394041 0.748465 -1.391890 -0.012090 -1.659050 1.151887 -0.267964 0.370801 -1.455503 -0.969655 0.406519 0.212739 1.112153 -0.866796 -1.195303 -0.821669 2.011892 -1.687494 1.185398 -1.083805 1.541448 1.162820 -0.308665 -0.944978 0.526568 1.142241 1.083656 -0.886855 -0.993931 -0.239454 1.023548 -0.912781 3.598606 -1.109129 -2.462309 -1.102598 0.209207 -1.777110 -2.056573 -0.805709 1.257710 -1.241256 -0.263546 -0.027647 0.905700 -0.816070 0.104463 -0.936196 -0.776815 -0.252518 0.642024 0.663891 0.407170 0.620971 0.500760 -1.222546 -2.115373 -0.610801 -0.554845 -1.761196
